svm_type c_svc
kernel_type rbf
gamma 0.0078125
nr_class 34
total_sv 1157
rho 0.2730540231598872 0.1751873893706748 0.6200977524811863 0.23612414926513142 0.015449726601397798 0.308570803581283 0.12773946534523184 0.0876926876168346 0.0713730390264211 0.3077353381177554 0.036851077140023884 -0.05394295257175382 -0.07678837904357703 -0.11890261380694071 0.09537070462001884 -0.09090887258316335 -0.004112904793399574 0.23231699458582059 -0.05720131023767291 0.19141807088885493 0.3633454989703102 0.13016573187384212 0.06754288150294042 0.7944683028037136 0.3110297025962196 -0.03799895895448422 0.3055046893000781 0.07472413007870195 0.19914707719664532 0.054368737467383146 0.05833619424475972 0.33642382307094876 -0.41090426784543027 -0.06967364635560998 -0.0636976046011384 -0.15101031514023905 -0.2899942744584663 -0.12044919630272413 -0.10459872895042599 -0.6590148554950269 -0.42081647186598886 -0.19218261571648726 -0.6028055355404335 -0.5139539443277555 -0.7057507450827673 -0.4631060164533606 -0.27326821530052425 -0.8814573375911521 -0.6419154571714724 -0.10553392579953774 -0.7039117611600433 -0.1163257145863082 -0.14774336652270817 -0.08981828473062829 -1.071230437480599 -0.20228455676222462 -1.0735717687015414 -0.2914605148334801 -0.08340236291294705 -0.2715512071058333 -0.14958124353427416 -0.2347049062240537 -0.20877454809589957 0.06617911169613093 -0.8512506058190982 0.022080145566260638 -0.1259360457437544 -0.29324190722491905 -0.09639704723756912 -0.07611935134515144 -0.15341325440127368 -0.21496383316270992 -0.14822303220465685 -0.2726509636416946 -0.3289812694713006 -0.44999861719306317 -0.3794301135317139 -0.23235518334853653 -0.627102932103128 -0.3474096627401415 0.01847657093949233 -0.3531411118975785 -0.005521189723791482 -0.10911397202034862 -0.11593684892658145 -0.2998394652383062 -0.0332593456251256 -0.14691268376143723 -0.1682462700818941 -0.07306502941093551 -0.10209115395216195 -0.06315052976741313 -0.23170367999588895 -0.14048321582463613 0.13917950933976764 -0.5823432652138765 -0.8627315807190432 -0.25034667814087025 -0.31236996855692384 -0.09143421363970262 -0.07631317031632866 -0.1060102071123747 -0.6788155506137227 -0.12491737725184726 -0.2032410817742585 -0.23906461487830455 -0.29770743667295546 -0.09957498684319313 -0.2086348692195711 -0.1512674000371637 -0.01205490579038177 -0.24337429790976767 -0.055525439995632524 -0.4322359186153724 -0.049141219696865274 -0.10459198834683102 -0.41195859365024606 -0.037980266175904984 -0.1916342229591471 -0.2176560534778185 -0.09024993855981171 -0.21766488099316944 -0.1579720125921827 -0.13813380524014948 -0.0205782848263058 -0.5038117551992329 -0.08370275054733244 0.17847898456209274 0.11772167810357177 0.025310767221088003 0.016636353595447347 0.6040906814558874 -0.014340013282114957 -0.07691947392211734 -0.1288995228909054 -0.17047653880401425 0.05384750774328629 -0.10757346437464119 -0.03591104668236648 0.14876291672664138 -0.11081227100711717 0.13965067073594986 0.14034911016870713 0.08046651940458209 0.003921636271846465 0.13842232894121925 0.1524053749932543 -0.08218160676239292 0.41044222122940255 0.018702035618675814 0.08104611946982633 0.020599764595898434 0.019084244640162232 0.18920079749183025 -0.4064171961167629 0.30003288894079905 0.11682369213850083 0.06853249830633157 0.015225326000221846 0.0724457619263052 0.00311077434830188 -0.08204588048253902 -0.17678443771887245 -0.17660466854398804 0.09542260890376632 -0.1530948553883484 -0.04428659941074234 0.8905177472296572 -0.11662384937950702 0.11291094153806208 0.11078868532844657 0.09083994350012767 0.0485432731313051 0.29763608707332545 0.21662165081489396 -0.026931295378145596 0.13655908716253704 0.08304458886921673 0.18945844558543828 0.05879597307877815 0.027856436965799012 0.3787246804677514 -0.4546113550551125 -0.127340639479117 -0.026473752277744806 0.03230214561427926 0.05470517786673716 -0.11252831439739064 -0.2978229845107839 -0.29035447458527036 -0.34427157054669816 0.012275588711309772 -0.27001531610722435 -0.21253880076123277 0.002961054293245585 -0.2561928763440547 0.028518987472493366 -0.13389458653827643 0.005344992951722509 -0.10819512865207122 0.048153341372970275 0.004260328046014743 -0.20767471908991475 0.09546761685882948 -0.05879588888961448 -0.12238369386819506 -0.3001998074475284 -0.23399211422917093 0.013746754061928695 -0.49159654968284544 -0.02073368510198582 -0.053431456883531125 -0.12425731608262931 -0.06681517726658762 -0.14999246402174285 -0.18639133523890006 -0.1509817599280441 -0.05174307639010018 -0.195389832415227 -0.12829938841137575 0.061683929943014706 -0.10913809086197802 0.030488961009001374 -0.09353142045862474 0.0042541307772090585 -0.07084315160210324 0.06177260789647232 0.0582310656293836 -0.13545946476840623 0.04543772521080874 -0.02721309790246197 -0.026805166047318866 -0.061723227441794766 -0.11484105902096411 0.11964106895440109 -0.43506521144325444 -0.07804970180642229 -0.06266083040456277 -0.20230862406017763 -0.08097999677951069 -0.3765595952670859 -0.25404066442202167 0.08216486659833123 -0.5116623911120436 -0.20247880417344244 0.11079081019678409 -0.40584079091486636 0.036159802517349286 -0.018920324405124263 0.06933205780185603 -0.13171687867416743 0.033775283915195596 -0.0013171948864703791 -0.12514474965393327 0.01375799663772016 -0.022964941869035124 0.0035520736291223933 -0.02504591346607031 -0.05413622832592031 0.12659593698846944 -0.7752596904554934 -0.04041350219162838 0.03966240698700526 -0.09672905480014432 -0.18838969914779863 -0.12368845939133756 0.2832818318405661 -0.2604539407715512 -0.12304117435672947 0.14076889445862 -0.11699762143485902 0.05816283500159635 0.03303141601265565 0.3803324187167156 -0.11916606820916459 0.15106376836250232 0.10467715825115735 -0.07140589550102137 0.03763137485738705 0.04714453443863267 0.04979644183969886 -0.005765339336857549 -0.037912636578920605 0.22576847205159112 -0.48747792165797227 0.013303948404935968 -0.07092455019277585 -0.09626338830571243 -0.1156999930570129 0.0490596033177444 -0.0965410083255791 -0.030168833791211717 0.17594833622317288 -0.0819663505869812 0.1765438099697913 0.12141883641924084 0.08003148828979605 0.014427612250293176 0.14250928524155537 0.14084475859447806 -0.0362418970789198 0.4400713807516126 0.0469544544919679 0.09849280167579459 -0.0031140545398238746 0.02239840605278003 0.22902689468845527 -0.37381898804508734 -0.08442457314174767 -0.29280423392352095 -0.15592596518784949 0.09954512853227004 -0.3907691532483606 -0.4370252301698579 0.1655276721711801 -0.3892539726836192 0.08416668060353455 0.024397798161534485 0.0959648205718415 -0.1060012084785892 0.10201355939336068 0.184584664847889 -0.06957949315929138 0.03841172476362034 0.31686442395765807 0.07734298539597093 0.02676687035326071 0.030185384269152862 0.2079606174097774 -0.6698082991891937 -0.3355366741826266 -0.1136121293758203 0.2227166560419806 -0.13805580600446624 -0.023329518915459826 0.2639100826830848 -0.061716188753930035 0.1432474228483824 0.12840320942275232 0.1969711787292852 0.09046093844102213 0.4998669577099345 0.36050016088728887 0.05315289814624289 0.11786746087443557 0.09229334097369302 0.24639655718503425 0.13190599219221705 0.09324039332344719 0.4341169159150332 -0.5687467930206986 0.24334170049027873 0.2690638592658191 -0.036643701438233915 0.10796271403105939 0.3724319740735481 0.10244909264928707 0.18294311464726606 0.16067984608278943 0.2590253040542457 0.211287162164186 0.42427356998143767 0.5575701532138456 0.04471148998781624 0.15281771732764116 0.20335529736501823 0.250012297833568 0.2455740887160499 0.1134001274026076 0.5377716451753418 -0.4652658799134615 0.22312035522889218 -0.10495971558008048 0.028090843535482652 0.418412769383221 -0.02852484167626067 0.1955110099355896 0.18753763226897965 0.20018876166963848 0.12924158401453562 0.5088973361130636 0.4309400274529475 0.027869681196215072 0.15308446321068547 0.17938958171770245 0.3378822976597681 0.1792324691251874 0.11733932157202495 0.5458924593869336 -0.4459044896221895 -0.30202035525721466 -0.27913075930671094 0.10532636898858501 -0.23454335960354442 0.04852948402271327 -0.007858231815481922 0.05863816838823555 -0.26830221246842806 0.12115900902501597 0.043236877558750136 -0.0900246145401911 0.04496603404977564 -0.001587904331358259 0.008720356217936943 -0.04902655498795638 -0.1432792031328408 0.16005385666241487 -0.5668887810474366 0.2150661718879825 0.3628826579420253 0.13720242050679426 0.18595850049227347 0.11916950080218144 0.31006156165621024 0.3750909354274921 0.24323520432266588 0.45809594883674637 0.09969094013608355 0.14805623734228984 0.3332384607781575 0.20927613166979753 0.174345701777828 0.14750030680809723 0.4029476587381571 -0.4870384886497019 0.19248507553869046 -0.186870431704023 0.10616753120460533 0.07346217587854853 0.24329689562704016 0.13869825434251087 0.1542335025024811 0.29803069336071963 -0.004346360372516795 0.08154193278591494 0.2047396814051026 0.11594254665746481 0.0663554845083129 0.0937217432397985 0.2541648295736861 -0.6530280901671641 -0.2952038499110293 -0.04127534343585905 -0.14633686559697442 -0.05741990538275476 -0.14608253240432648 -0.03508340329507064 -0.04813638371658961 -0.17868333830686403 -0.053315797227243215 -0.08245624694868893 -0.17924577355599292 -0.20407894666185433 -0.13242216054166225 -0.018558963823009603 -0.5902427542941647 0.14987022613037904 0.14406856427288325 0.2089217093890529 0.23616373600665064 0.427031317478704 0.6439662466238911 0.030496296667513634 0.1251383016705131 0.24558533438054403 0.16239275487386345 0.1275368741610689 0.06694314871068512 0.34224991678824324 -0.5321918761210009 -0.10537114087426816 -0.0011684268585373133 -0.07393621144273835 0.013407263389955095 -0.09276722342404589 -0.20112185640258803 -0.04543999472303728 -0.047593316114963174 -0.0530076182398957 -0.0722600705694021 -0.08121607434482643 0.10046096755137894 -0.4334835051069388 0.04267367444927614 -0.02175593291977217 0.06596348623690027 0.13974357303102528 -0.08572806159746282 0.21616382028212502 0.020739507201300238 0.03585267876562572 -0.05922103509157132 -0.006324564976714752 0.18099870408528582 -0.4085632373615057 -0.23313722233013526 0.10727150417100181 0.012848454746718462 -0.1479796341799491 -0.0049365265355515876 -0.04758560031494328 -0.00592987434246003 -0.07714881277741045 -0.12622333641097258 0.17799960859389874 -0.5206937567111324 0.08118048819697872 0.1809072197156855 -0.06674635704180286 0.05056079150264145 0.12692245058892154 0.06349373724570502 0.04255631340926822 0.01909304833871361 0.23678278709095446 -0.6035167313728281 0.15566006800926954 -0.2777099031200784 -0.012999189810305069 -0.04125182456213756 -0.1888651628766451 -0.21565092750465178 -0.18874098497643366 0.020680371736487447 -0.5222416937797221 -0.28787380595553225 -0.05976788904794002 -0.008769498459998372 -0.1097675960323736 -0.14943091946156623 -0.12208706781961903 0.09266056567150337 -0.6331489296955728 0.10192057359495639 0.07792885451000117 0.177679466603158 0.07471024906548626 0.04145832436702069 0.3562434286565735 -0.4202598361513644 -0.00934993259678644 -0.05925971647974653 -0.06445691637876634 -0.10842488833375753 0.10625160056782526 -0.3894787133143205 0.010045052240333295 -0.022370391537775338 -0.016300078135361197 0.10677206034393139 -1.1697019230472163 -0.09108568218770885 -0.0488664930858286 0.33240887799292457 -0.47834947054647925 -0.0037867046809547658 0.30902283018657317 -0.4690717659675978 0.15838262198473005 -0.4324200959286809 -0.5398154720210544
label 114 104 48 106 105 118 49 50 112 54 108 113 97 101 115 53 117 100 121 99 109 102 56 98 116 110 119 55 103 120 52 51 107 57
nr_sv 34 49 32 38 31 40 37 30 38 31 33 29 32 46 36 36 24 37 35 39 39 30 39 33 47 42 30 41 28 36 28 22 34 1
SV
0.0 0.0 0.3220130957283475 0.0 0.5226865075212354 0.3594250278153661 0.0 0.0 0.0 0.6815359169080397 0.0 0.0 0.0 0.0 0.0 0.0 0.0 0.1302096803525817 0.0 0.0 1.645331194632268 0.0 0.0 2.4028845565888903 0.0 0.0 1.1181576105840738 0.0 0.5174105999450047 0.0 0.0 0.031059802498197755 0.0 1:1.0 2:1.0 3:1.0 4:1.0 5:1.0 6:0.696 7:1.0 8:1.0 9:1.0 10:1.0 11:1.0 12:1.0 13:1.0 14:1.0 15:1.0 16:1.0 17:1.0 18:1.0 19:1.0 20:1.0 21:1.0 22:1.0 23:1.0 24:1.0 25:1.0 26:1.0 27:1.0 28:1.0 29:1.0 30:0.228 31:1.0 32:1.0 33:1.0 34:0.912 35:1.0 36:1.0 37:1.0 38:1.0 39:1.0 40:1.0 41:1.0 42:1.0 43:1.0 44:1.0 45:1.0 46:0.694 47:1.0 48:1.0 49:1.0 50:1.0 51:1.0 52:0.6819999999999999 53:0.516 54:1.0 55:1.0 56:1.0 57:1.0 58:1.0 59:1.0 60:1.0 61:1.0 62:1.0 63:1.0 64:1.0 65:1.0 66:1.0 67:1.0 68:1.0 69:1.0 70:1.0 71:1.0 72:1.0 73:1.0 74:1.0 75:1.0 76:1.0 77:1.0 78:1.0 79:1.0 80:1.0 81:1.0 82:1.0 83:1.0 84:1.0 85:1.0 86:1.0 87:1.0 88:1.0 89:1.0 90:0.622 91:0.8 92:1.0 93:1.0 94:1.0 95:1.0 96:1.0 97:1.0 98:1.0 99:1.0 100:1.0 101:1.0 102:1.0 103:1.0 104:1.0 105:1.0 106:1.0 107:1.0 108:1.0 109:1.0 110:0.184 111:0.066 112:0.244 113:0.244 114:0.622 115:1.0 116:1.0 117:1.0 118:1.0 119:1.0 120:1.0 121:1.0 122:1.0 123:1.0 124:1.0 125:1.0 126:0.712 127:1.0 128:1.0 129:1.0 130:1.0 131:0.066 132:0.066 133:0.066 134:0.066 135:0.066 136:0.266 137:0.244 138:1.0 139:1.0 140:1.0 141:1.0 142:1.0 143:1.0 144:1.0 145:1.0 146:1.0 147:1.0 148:1.0 149:1.0 150:1.0 151:1.0 152:0.8220000000000001 153:0.244 154:0.066 155:0.066 156:0.066 157:0.066 158:0.066 159:0.066 160:0.266 161:0.622 162:1.0 163:1.0 164:1.0 165:1.0 166:1.0 167:1.0 168:0.482 169:1.0 170:1.0 171:1.0 172:0.444 173:0.066 174:0.066 175:0.244 176:0.444 177:0.066 178:0.066 179:0.066 180:0.066 181:0.066 182:0.066 183:0.066 184:0.8220000000000001 185:1.0 186:1.0 187:1.0 188:1.0 189:1.0 190:1.0 191:0.674 192:1.0 193:0.244 194:0.066 195:0.266 196:1.0 197:1.0 198:1.0 199:0.8220000000000001 200:0.444 201:0.244 202:0.066 203:0.066 204:0.244 205:1.0 206:1.0 207:1.0 208:1.0 209:1.0 210:1.0 211:1.0 212:1.0 213:0.8 214:0.066 215:0.066 216:0.622 217:1.0 218:1.0 219:1.0 220:1.0 221:1.0 222:1.0 223:0.622 224:0.444 225:0.244 226:1.0 227:1.0 228:1.0 229:0.14200000000000002 230:1.0 231:1.0 232:1.0 233:1.0 234:1.0 235:0.8220000000000001 236:0.104 237:1.0 238:1.0 239:1.0 240:1.0 241:1.0 242:1.0 243:0.7040000000000001 244:1.0 245:1.0 246:0.624 247:1.0 248:1.0 249:1.0 250:0.49599999999999994 251:1.0 252:1.0 253:1.0 254:1.0 255:1.0 256:1.0 257:1.0 258:0.858 259:1.0 260:1.0 261:1.0 262:1.0 263:1.0 264:1.0 265:1.0 266:1.0 267:1.0 268:1.0 269:1.0 270:1.0 271:1.0 272:1.0 273:1.0 274:0.49599999999999994 275:1.0 276:1.0 277:1.0 278:1.0 279:1.0 280:1.0 281:1.0 282:1.0 283:1.0 284:1.0 285:1.0 286:1.0 287:1.0 288:1.0 289:0.38599999999999995 290:1.0 291:1.0 292:1.0 293:1.0 294:1.0 295:1.0 296:1.0 297:0.066 298:0.444 299:0.622 300:1.0 301:1.0 302:1.0 303:1.0 304:1.0 305:1.0 306:1.0 307:1.0 308:1.0 309:1.0 310:1.0 311:1.0 312:1.0 313:1.0 314:1.0 315:1.0 316:1.0 317:0.622 318:0.066 319:0.066 320:0.066 321:0.066 322:0.244 323:0.444 324:0.8220000000000001 325:1.0 326:1.0 327:1.0 328:1.0 329:1.0 330:1.0 331:1.0 332:1.0 333:1.0 334:0.658 335:1.0 336:1.0 
0.06883502087256213 0.6745468530843465 0.35139704815656436 0.030987171389640248 0.021684684377495975 0.14036186980523457 0.33544295248352746 0.19813256035170554 0.22899634494312163 0.0 0.0 0.20008112565926187 0.047792445622912766 0.09717745814804421 0.26391252085324085 0.22061506406026107 0.0 0.5292562375181451 0.4400459901542065 0.0 0.3406111915965801 0.4034783103775398 0.124040893099663 1.5447568771937845 0.0 0.0 0.0 0.20138781188076077 0.0 0.0 0.26159291733616874 0.0 0.0 1:1.0 2:0.644 3:0.066 4:0.066 5:0.066 6:0.444 7:1.0 8:0.8220000000000001 9:0.066 10:0.066 11:0.066 12:0.066 13:0.066 14:0.066 15:0.066 16:0.8220000000000001 17:1.0 18:1.0 19:1.0 20:1.0 21:1.0 22:1.0 23:1.0 24:0.266 25:0.066 26:0.066 27:0.244 28:1.0 29:0.7020000000000001 30:0.8 31:0.244 32:0.244 33:0.244 34:0.244 35:0.444 36:0.8220000000000001 37:1.0 38:1.0 39:1.0 40:1.0 41:1.0 42:1.0 43:1.0 44:1.0 45:1.0 46:0.444 47:0.066 48:0.066 49:1.0 50:1.0 51:1.0 52:1.0 53:1.0 54:0.814 55:1.0 56:1.0 57:1.0 58:1.0 59:1.0 60:1.0 61:1.0 62:1.0 63:0.756 64:1.0 65:1.0 66:1.0 67:1.0 68:1.0 69:1.0 70:1.0 71:1.0 72:1.0 73:1.0 74:1.0 75:0.674 76:1.0 77:1.0 78:1.0 79:1.0 80:1.0 81:1.0 82:1.0 83:1.0 84:1.0 85:1.0 86:1.0 87:1.0 88:1.0 89:1.0 90:1.0 91:0.282 92:1.0 93:1.0 94:1.0 95:1.0 96:1.0 97:1.0 98:1.0 99:1.0 100:1.0 101:1.0 102:0.45799999999999996 103:1.0 104:1.0 105:0.31999999999999995 106:1.0 107:1.0 108:1.0 109:0.42 110:1.0 111:1.0 112:1.0 113:1.0 114:1.0 115:1.0 116:1.0 117:0.44599999999999995 118:1.0 119:1.0 120:1.0 121:1.0 122:1.0 123:1.0 124:0.34 125:1.0 126:1.0 127:1.0 128:1.0 129:1.0 130:1.0 131:1.0 132:0.266 133:0.066 134:0.266 135:0.066 136:0.266 137:0.066 138:0.266 139:0.066 140:0.266 141:0.066 142:0.266 143:1.0 144:1.0 145:1.0 146:1.0 147:1.0 148:1.0 149:1.0 150:1.0 151:1.0 152:1.0 153:0.244 154:0.066 155:0.066 156:0.066 157:0.066 158:0.066 159:0.066 160:0.066 161:0.066 162:0.066 163:0.244 164:1.0 165:1.0 166:1.0 167:1.0 168:1.0 169:1.0 170:1.0 171:1.0 172:1.0 173:1.0 174:0.266 175:0.066 176:0.066 177:0.066 178:0.266 179:0.066 180:0.266 181:0.066 182:0.266 183:0.066 184:0.266 185:1.0 186:1.0 187:0.34600000000000003 188:1.0 189:1.0 190:1.0 191:0.7160000000000001 192:1.0 193:1.0 194:1.0 195:0.8220000000000001 196:0.244 197:0.244 198:0.8220000000000001 199:1.0 200:1.0 201:1.0 202:1.0 203:1.0 204:0.444 205:1.0 206:1.0 207:1.0 208:1.0 209:1.0 210:1.0 211:1.0 212:1.0 213:1.0 214:1.0 215:0.24600000000000002 216:0.244 217:0.066 218:1.0 219:1.0 220:1.0 221:1.0 222:1.0 223:1.0 224:1.0 225:1.0 226:1.0 227:1.0 228:1.0 229:1.0 230:1.0 231:1.0 232:1.0 233:1.0 234:1.0 235:1.0 236:1.0 237:0.066 238:0.244 239:1.0 240:1.0 241:1.0 242:1.0 243:1.0 244:1.0 245:1.0 246:1.0 247:1.0 248:1.0 249:1.0 250:1.0 251:1.0 252:1.0 253:1.0 254:1.0 255:0.118 256:1.0 257:1.0 258:0.444 259:0.044000000000000004 260:0.8220000000000001 261:1.0 262:1.0 263:0.378 264:1.0 265:0.244 266:1.0 267:0.14 268:1.0 269:0.324 270:1.0 271:1.0 272:1.0 273:1.0 274:0.66 275:1.0 276:1.0 277:0.358 278:1.0 279:1.0 280:1.0 281:1.0 282:1.0 283:1.0 284:1.0 285:1.0 286:1.0 287:1.0 288:1.0 289:1.0 290:1.0 291:1.0 292:0.424 293:1.0 294:1.0 295:1.0 296:1.0 297:1.0 298:1.0 299:1.0 300:1.0 301:1.0 302:1.0 303:1.0 304:1.0 305:1.0 306:1.0 307:1.0 308:1.0 309:1.0 310:0.672 311:1.0 312:1.0 313:1.0 314:1.0 315:1.0 316:1.0 317:1.0 318:1.0 319:1.0 320:1.0 321:1.0 322:1.0 323:1.0 324:1.0 325:0.45999999999999996 326:1.0 327:1.0 328:1.0 329:1.0 330:1.0 331:1.0 332:1.0 333:1.0 334:1.0 335:1.0 336:1.0 
0.0 0.0 0.0 0.0 0.0 0.0 0.0 0.0 0.0 0.0 0.0 0.0 0.0 0.0 0.0 0.0 0.0 0.0 0.0 0.32123881005417626 0.0 0.0 0.0 0.0 0.0 0.0 0.0 0.0 0.0 0.0 0.0 0.0 0.0 1:1.0 2:1.0 3:1.0 4:1.0 5:1.0 6:1.0 7:0.066 8:0.066 9:0.066 10:0.066 11:0.066 12:0.066 13:0.066 14:0.266 15:0.066 16:0.444 17:0.444 18:1.0 19:1.0 20:1.0 21:1.0 22:1.0 23:1.0 24:1.0 25:1.0 26:1.0 27:1.0 28:0.8220000000000001 29:0.244 30:0.244 31:0.066 32:0.266 33:0.444 34:0.8220000000000001 35:0.8220000000000001 36:1.0 37:1.0 38:1.0 39:1.0 40:1.0 41:1.0 42:1.0 43:1.0 44:1.0 45:1.0 46:0.384 47:1.0 48:1.0 49:1.0 50:1.0 51:1.0 52:1.0 53:1.0 54:1.0 55:0.31999999999999995 56:1.0 57:1.0 58:1.0 59:1.0 60:1.0 61:1.0 62:1.0 63:1.0 64:1.0 65:1.0 66:1.0 67:1.0 68:1.0 69:1.0 70:1.0 71:1.0 72:1.0 73:1.0 74:1.0 75:1.0 76:1.0 77:1.0 78:1.0 79:1.0 80:1.0 81:1.0 82:1.0 83:1.0 84:1.0 85:1.0 86:1.0 87:1.0 88:1.0 89:1.0 90:1.0 91:1.0 92:1.0 93:0.8739999999999999 94:1.0 95:1.0 96:1.0 97:1.0 98:1.0 99:0.622 100:0.502 101:1.0 102:1.0 103:1.0 104:1.0 105:1.0 106:1.0 107:1.0 108:1.0 109:1.0 110:1.0 111:1.0 112:0.776 113:1.0 114:1.0 115:0.8220000000000001 116:0.622 117:0.444 118:0.244 119:0.244 120:0.066 121:0.444 122:1.0 123:1.0 124:1.0 125:1.0 126:1.0 127:1.0 128:1.0 129:1.0 130:1.0 131:1.0 132:1.0 133:0.622 134:0.444 135:0.066 136:0.266 137:0.066 138:0.066 139:0.066 140:0.066 141:0.066 142:0.266 143:1.0 144:1.0 145:1.0 146:1.0 147:0.68 148:1.0 149:1.0 150:1.0 151:1.0 152:0.622 153:0.244 154:0.066 155:0.066 156:0.066 157:0.066 158:0.066 159:0.066 160:0.066 161:0.244 162:0.444 163:0.622 164:1.0 165:1.0 166:0.5800000000000001 167:1.0 168:0.44 169:1.0 170:1.0 171:1.0 172:1.0 173:0.8 174:0.066 175:0.066 176:0.066 177:0.066 178:0.266 179:0.244 180:0.644 181:0.8 182:1.0 183:1.0 184:1.0 185:1.0 186:1.0 187:1.0 188:1.0 189:1.0 190:1.0 191:1.0 192:1.0 193:1.0 194:1.0 195:0.266 196:0.266 197:0.066 198:0.444 199:1.0 200:1.0 201:1.0 202:1.0 203:0.658 204:1.0 205:1.0 206:1.0 207:1.0 208:1.0 209:1.0 210:1.0 211:1.0 212:1.0 213:1.0 214:1.0 215:1.0 216:0.8220000000000001 217:0.066 218:0.266 219:1.0 220:1.0 221:1.0 222:1.0 223:1.0 224:1.0 225:1.0 226:1.0 227:1.0 228:1.0 229:1.0 230:1.0 231:0.42 232:1.0 233:1.0 234:1.0 235:1.0 236:1.0 237:0.444 238:0.066 239:0.066 240:1.0 241:1.0 242:1.0 243:1.0 244:1.0 245:1.0 246:1.0 247:1.0 248:1.0 249:1.0 250:1.0 251:1.0 252:1.0 253:0.718 254:1.0 255:1.0 256:1.0 257:1.0 258:0.244 259:0.066 260:0.066 261:0.444 262:1.0 263:1.0 264:1.0 265:1.0 266:1.0 267:1.0 268:1.0 269:1.0 270:1.0 271:1.0 272:1.0 273:1.0 274:1.0 275:1.0 276:1.0 277:1.0 278:1.0 279:1.0 280:0.266 281:0.622 282:1.0 283:1.0 284:1.0 285:1.0 286:1.0 287:1.0 288:1.0 289:1.0 290:1.0 291:1.0 292:1.0 293:1.0 294:1.0 295:1.0 296:1.0 297:1.0 298:1.0 299:1.0 300:0.46599999999999997 301:0.622 302:1.0 303:1.0 304:1.0 305:1.0 306:0.6140000000000001 307:1.0 308:1.0 309:0.184 310:1.0 311:1.0 312:1.0 313:1.0 314:1.0 315:1.0 316:1.0 317:1.0 318:1.0 319:1.0 320:1.0 321:1.0 322:0.266 323:0.244 324:1.0 325:1.0 326:1.0 327:1.0 328:1.0 329:1.0 330:1.0 331:1.0 332:1.0 333:1.0 334:1.0 335:1.0 336:1.0 
0.0 0.11902878229041143 3.236922914964426 3.788333672780814 0.1901650315734703 1.6973029523472811 0.7581535093895392 0.0 0.0 3.731875344719437 0.0 0.0 0.0 0.0 0.04633061851668341 0.0 0.0 0.21279546514389375 0.0 0.0 2.256566765240596 0.0 0.0 2.592608022867082 0.0 0.0 1.7386231522056557 0.0 1.566868237160116 0.0 0.586980414854108 0.11439792393666659 0.0 1:1.0 2:1.0 3:1.0 4:1.0 5:1.0 6:1.0 7:1.0 8:1.0 9:0.494 10:1.0 11:1.0 12:1.0 13:0.30200000000000005 14:1.0 15:1.0 16:1.0 17:1.0 18:1.0 19:1.0 20:1.0 21:1.0 22:1.0 23:0.49599999999999994 24:1.0 25:1.0 26:1.0 27:1.0 28:1.0 29:1.0 30:1.0 31:1.0 32:1.0 33:1.0 34:1.0 35:1.0 36:1.0 37:1.0 38:0.498 39:1.0 40:1.0 41:1.0 42:1.0 43:1.0 44:1.0 45:1.0 46:1.0 47:1.0 48:1.0 49:1.0 50:1.0 51:1.0 52:1.0 53:1.0 54:1.0 55:1.0 56:1.0 57:1.0 58:1.0 59:1.0 60:0.266 61:1.0 62:1.0 63:1.0 64:0.6140000000000001 65:1.0 66:0.576 67:1.0 68:1.0 69:1.0 70:1.0 71:1.0 72:1.0 73:1.0 74:0.438 75:1.0 76:1.0 77:1.0 78:1.0 79:1.0 80:1.0 81:1.0 82:1.0 83:0.444 84:1.0 85:1.0 86:1.0 87:0.258 88:1.0 89:0.414 90:1.0 91:1.0 92:1.0 93:1.0 94:1.0 95:0.712 96:1.0 97:1.0 98:1.0 99:1.0 100:1.0 101:1.0 102:1.0 103:1.0 104:1.0 105:1.0 106:1.0 107:0.416 108:1.0 109:0.45799999999999996 110:1.0 111:1.0 112:1.0 113:1.0 114:1.0 115:1.0 116:1.0 117:1.0 118:1.0 119:1.0 120:1.0 121:1.0 122:1.0 123:1.0 124:1.0 125:1.0 126:1.0 127:1.0 128:1.0 129:0.30200000000000005 130:1.0 131:1.0 132:1.0 133:0.8 134:0.8220000000000001 135:0.8 136:0.644 137:0.444 138:0.622 139:0.444 140:0.622 141:0.444 142:0.644 143:1.0 144:1.0 145:1.0 146:1.0 147:1.0 148:1.0 149:1.0 150:1.0 151:1.0 152:1.0 153:0.244 154:0.066 155:0.066 156:0.066 157:0.066 158:0.066 159:0.066 160:0.066 161:0.066 162:0.066 163:0.244 164:1.0 165:1.0 166:1.0 167:0.18 168:1.0 169:1.0 170:1.0 171:1.0 172:1.0 173:1.0 174:0.444 175:0.066 176:0.066 177:0.066 178:0.066 179:0.066 180:0.066 181:0.066 182:0.066 183:0.066 184:0.266 185:0.8 186:1.0 187:0.388 188:1.0 189:1.0 190:1.0 191:1.0 192:1.0 193:1.0 194:1.0 195:0.622 196:0.266 197:0.066 198:0.244 199:0.066 200:0.622 201:0.444 202:0.622 203:0.8 204:0.8220000000000001 205:0.8 206:1.0 207:1.0 208:1.0 209:1.0 210:1.0 211:1.0 212:1.0 213:1.0 214:1.0 215:1.0 216:0.622 217:0.066 218:0.266 219:0.8220000000000001 220:1.0 221:1.0 222:1.0 223:1.0 224:1.0 225:1.0 226:1.0 227:1.0 228:1.0 229:1.0 230:1.0 231:1.0 232:1.0 233:1.0 234:1.0 235:1.0 236:1.0 237:0.244 238:0.066 239:0.244 240:1.0 241:1.0 242:1.0 243:1.0 244:1.0 245:1.0 246:1.0 247:1.0 248:1.0 249:1.0 250:1.0 251:0.498 252:1.0 253:0.222 254:1.0 255:1.0 256:1.0 257:1.0 258:0.444 259:0.066 260:0.244 261:0.8 262:1.0 263:1.0 264:1.0 265:1.0 266:1.0 267:1.0 268:1.0 269:1.0 270:1.0 271:1.0 272:1.0 273:1.0 274:1.0 275:1.0 276:1.0 277:1.0 278:0.6140000000000001 279:0.622 280:0.622 281:0.8220000000000001 282:1.0 283:1.0 284:1.0 285:1.0 286:1.0 287:1.0 288:1.0 289:1.0 290:1.0 291:1.0 292:1.0 293:1.0 294:1.0 295:1.0 296:1.0 297:1.0 298:1.0 299:1.0 300:1.0 301:1.0 302:1.0 303:1.0 304:1.0 305:1.0 306:1.0 307:1.0 308:1.0 309:1.0 310:1.0 311:1.0 312:0.562 313:1.0 314:1.0 315:1.0 316:1.0 317:1.0 318:1.0 319:1.0 320:0.8220000000000001 321:1.0 322:1.0 323:1.0 324:0.7419999999999999 325:1.0 326:1.0 327:0.694 328:1.0 329:0.578 330:1.0 331:0.502 332:1.0 333:1.0 334:0.694 335:1.0 336:1.0 
0.0 0.02245575185204692 0.5880262309993852 1.1197756428717918 0.0 0.7678003835079188 0.3065649218306746 0.32372743444859237 0.0 1.403196129079951 0.058243954040862626 0.5888278443490074 0.14725146912494105 0.036025223131551085 0.12274889168604493 0.0 0.01976611741845139 0.0 0.0 0.0 2.3495346010892186 0.11054405297674327 0.20350176819224933 3.8635067796676976 0.09368138550041662 0.1955709318178958 0.7600705091436861 0.2382508993961451 0.35461992663148556 0.11607083684855736 0.3762029122073928 0.3920950306516186 0.10897339754681244 1:1.0 2:1.0 3:0.48 4:1.0 5:1.0 6:1.0 7:1.0 8:1.0 9:1.0 10:1.0 11:1.0 12:1.0 13:1.0 14:1.0 15:1.0 16:1.0 17:0.268 18:1.0 19:1.0 20:1.0 21:1.0 22:1.0 23:1.0 24:1.0 25:1.0 26:1.0 27:1.0 28:0.7940000000000002 29:1.0 30:1.0 31:1.0 32:1.0 33:1.0 34:1.0 35:1.0 36:1.0 37:1.0 38:1.0 39:1.0 40:0.14 41:1.0 42:1.0 43:1.0 44:1.0 45:1.0 46:1.0 47:1.0 48:1.0 49:1.0 50:1.0 51:1.0 52:1.0 53:1.0 54:1.0 55:1.0 56:1.0 57:1.0 58:1.0 59:1.0 60:1.0 61:1.0 62:1.0 63:1.0 64:0.68 65:1.0 66:1.0 67:1.0 68:1.0 69:1.0 70:1.0 71:1.0 72:1.0 73:1.0 74:1.0 75:1.0 76:1.0 77:1.0 78:1.0 79:1.0 80:0.162 81:1.0 82:1.0 83:1.0 84:1.0 85:1.0 86:1.0 87:1.0 88:1.0 89:1.0 90:0.7539999999999999 91:1.0 92:1.0 93:1.0 94:1.0 95:1.0 96:0.44599999999999995 97:1.0 98:0.8220000000000001 99:0.622 100:1.0 101:1.0 102:1.0 103:1.0 104:1.0 105:1.0 106:1.0 107:1.0 108:1.0 109:1.0 110:1.0 111:1.0 112:1.0 113:1.0 114:0.406 115:1.0 116:1.0 117:0.444 118:0.066 119:0.066 120:0.244 121:1.0 122:1.0 123:1.0 124:1.0 125:1.0 126:1.0 127:1.0 128:1.0 129:1.0 130:1.0 131:0.32599999999999996 132:1.0 133:1.0 134:1.0 135:0.622 136:0.444 137:0.066 138:0.066 139:0.066 140:0.066 141:0.066 142:0.8220000000000001 143:1.0 144:1.0 145:0.636 146:0.554 147:1.0 148:1.0 149:0.328 150:1.0 151:1.0 152:0.6020000000000001 153:0.622 154:0.444 155:0.066 156:0.066 157:0.066 158:0.066 159:0.066 160:0.066 161:0.244 162:0.222 163:1.0 164:0.8160000000000001 165:1.0 166:1.0 167:1.0 168:1.0 169:1.0 170:0.62 171:1.0 172:1.0 173:0.244 174:0.066 175:0.066 176:0.066 177:0.066 178:0.066 179:0.066 180:0.444 181:0.622 182:1.0 183:1.0 184:1.0 185:1.0 186:1.0 187:1.0 188:1.0 189:1.0 190:1.0 191:1.0 192:1.0 193:1.0 194:0.622 195:0.066 196:0.066 197:0.066 198:0.066 199:0.222 200:1.0 201:1.0 202:1.0 203:1.0 204:1.0 205:0.516 206:1.0 207:1.0 208:1.0 209:1.0 210:1.0 211:1.0 212:1.0 213:1.0 214:1.0 215:0.516 216:0.444 217:0.066 218:0.066 219:0.622 220:1.0 221:1.0 222:1.0 223:1.0 224:1.0 225:1.0 226:1.0 227:1.0 228:1.0 229:1.0 230:1.0 231:1.0 232:1.0 233:1.0 234:1.0 235:1.0 236:1.0 237:0.8220000000000001 238:0.244 239:0.244 240:1.0 241:1.0 242:1.0 243:1.0 244:1.0 245:1.0 246:1.0 247:1.0 248:1.0 249:1.0 250:1.0 251:1.0 252:1.0 253:1.0 254:1.0 255:1.0 256:1.0 257:1.0 258:0.8220000000000001 259:0.066 260:0.066 261:0.444 262:1.0 263:1.0 264:1.0 265:1.0 266:1.0 267:1.0 268:1.0 269:1.0 270:1.0 271:0.44599999999999995 272:1.0 273:1.0 274:1.0 275:1.0 276:1.0 277:1.0 278:1.0 279:0.8220000000000001 280:0.244 281:0.066 282:0.444 283:0.564 284:1.0 285:1.0 286:0.14200000000000002 287:1.0 288:1.0 289:1.0 290:1.0 291:1.0 292:1.0 293:1.0 294:1.0 295:1.0 296:1.0 297:1.0 298:1.0 299:1.0 300:1.0 301:0.622 302:0.622 303:1.0 304:0.082 305:1.0 306:1.0 307:1.0 308:1.0 309:1.0 310:0.8160000000000001 311:1.0 312:1.0 313:1.0 314:1.0 315:1.0 316:1.0 317:1.0 318:1.0 319:1.0 320:1.0 321:1.0 322:1.0 323:1.0 324:1.0 325:0.8 326:0.8220000000000001 327:0.8220000000000001 328:1.0 329:1.0 330:1.0 331:1.0 332:1.0 333:1.0 334:0.44 335:1.0 336:1.0 
0.3940236458056792 0.11161754546190557 0.7492099932808229 1.9080113780736585 1.094988638471271 0.2886073113306699 0.39851316327037845 0.17790087506008562 0.37302799468819253 1.1091384726229834 0.29787163320130056 0.523251640903273 1.140633008672413 1.2431041374513871 0.38815108416005295 0.33774624689617955 0.15485660404883003 0.5800546001193134 1.4520747801886889 0.45474911663035805 1.0689095338804384 0.17472683275495898 0.24456275566412577 1.0410668608469462 0.9066456343414769 0.0 0.5064735432158433 0.0 1.1604015653461812 0.44920282130860606 0.15581476542508357 0.43719131665395655 0.0 1:1.0 2:1.0 3:1.0 4:1.0 5:0.066 6:0.266 7:0.8 8:1.0 9:1.0 10:1.0 11:0.444 12:0.444 13:0.066 14:0.066 15:0.422 16:1.0 17:1.0 18:1.0 19:1.0 20:1.0 21:1.0 22:1.0 23:1.0 24:1.0 25:0.364 26:1.0 27:0.8 28:1.0 29:1.0 30:1.0 31:0.622 32:0.066 33:0.066 34:0.066 35:0.244 36:1.0 37:1.0 38:1.0 39:1.0 40:1.0 41:1.0 42:1.0 43:1.0 44:1.0 45:0.8 46:1.0 47:1.0 48:0.7979999999999999 49:1.0 50:1.0 51:1.0 52:0.184 53:0.066 54:0.066 55:0.244 56:0.244 57:1.0 58:0.8899999999999999 59:1.0 60:1.0 61:1.0 62:1.0 63:1.0 64:1.0 65:1.0 66:1.0 67:1.0 68:1.0 69:0.5800000000000001 70:1.0 71:1.0 72:1.0 73:0.8220000000000001 74:0.8220000000000001 75:0.8220000000000001 76:1.0 77:1.0 78:1.0 79:0.388 80:1.0 81:1.0 82:1.0 83:1.0 84:1.0 85:1.0 86:1.0 87:1.0 88:1.0 89:1.0 90:1.0 91:0.8 92:1.0 93:1.0 94:1.0 95:1.0 96:1.0 97:1.0 98:1.0 99:1.0 100:1.0 101:1.0 102:1.0 103:1.0 104:1.0 105:1.0 106:0.11 107:1.0 108:1.0 109:1.0 110:1.0 111:1.0 112:0.266 113:0.244 114:0.622 115:1.0 116:1.0 117:1.0 118:1.0 119:1.0 120:1.0 121:1.0 122:1.0 123:1.0 124:1.0 125:1.0 126:1.0 127:1.0 128:0.94 129:1.0 130:1.0 131:1.0 132:0.8220000000000001 133:0.066 134:0.066 135:0.066 136:0.266 137:0.444 138:1.0 139:1.0 140:0.484 141:0.32599999999999996 142:0.792 143:1.0 144:1.0 145:1.0 146:1.0 147:1.0 148:1.0 149:1.0 150:1.0 151:1.0 152:1.0 153:0.8220000000000001 154:0.444 155:0.066 156:0.066 157:0.066 158:0.066 159:0.244 160:0.444 161:0.8220000000000001 162:1.0 163:1.0 164:1.0 165:1.0 166:1.0 167:1.0 168:1.0 169:0.184 170:1.0 171:1.0 172:1.0 173:0.622 174:0.266 175:0.066 176:0.266 177:0.066 178:0.066 179:0.066 180:0.066 181:0.066 182:0.266 183:0.422 184:1.0 185:1.0 186:1.0 187:1.0 188:1.0 189:1.0 190:1.0 191:1.0 192:1.0 193:1.0 194:0.244 195:0.066 196:0.244 197:0.8 198:1.0 199:0.48 200:0.444 201:0.244 202:0.066 203:0.066 204:0.066 205:0.244 206:0.8220000000000001 207:1.0 208:1.0 209:1.0 210:1.0 211:1.0 212:1.0 213:1.0 214:1.0 215:0.066 216:0.066 217:0.444 218:1.0 219:1.0 220:1.0 221:1.0 222:1.0 223:0.422 224:0.266 225:0.066 226:0.444 227:1.0 228:1.0 229:1.0 230:0.718 231:1.0 232:0.266 233:0.14800000000000002 234:0.484 235:1.0 236:0.8220000000000001 237:0.318 238:0.8220000000000001 239:1.0 240:1.0 241:0.324 242:1.0 243:1.0 244:0.912 245:1.0 246:0.622 247:0.622 248:1.0 249:1.0 250:1.0 251:1.0 252:1.0 253:1.0 254:1.0 255:1.0 256:1.0 257:1.0 258:1.0 259:1.0 260:1.0 261:1.0 262:1.0 263:1.0 264:1.0 265:1.0 266:1.0 267:1.0 268:0.5399999999999999 269:1.0 270:1.0 271:1.0 272:1.0 273:1.0 274:1.0 275:1.0 276:1.0 277:1.0 278:1.0 279:1.0 280:1.0 281:1.0 282:1.0 283:1.0 284:1.0 285:1.0 286:0.6759999999999999 287:1.0 288:1.0 289:1.0 290:1.0 291:1.0 292:1.0 293:1.0 294:1.0 295:1.0 296:1.0 297:1.0 298:1.0 299:1.0 300:1.0 301:1.0 302:1.0 303:1.0 304:1.0 305:1.0 306:1.0 307:1.0 308:1.0 309:1.0 310:1.0 311:1.0 312:1.0 313:0.516 314:1.0 315:1.0 316:1.0 317:1.0 318:1.0 319:1.0 320:0.66 321:0.266 322:1.0 323:1.0 324:1.0 325:1.0 326:1.0 327:1.0 328:1.0 329:1.0 330:1.0 331:1.0 332:1.0 333:1.0 334:1.0 335:1.0 336:1.0 
1.6198701509183322 0.9152118940075507 0.11613232126257328 0.07094990010077712 1.346134734316474 0.05053861253997667 0.15232835300491754 1.0580375786295484 1.203980995431716 0.0 1.1171281757467624 0.7174966828058141 1.6291004215107099 0.9159551871177896 0.5498010914271867 1.1783496002501406 1.1648959845968643 0.6140396419273615 1.8318467546964246 1.237649059866103 0.0 0.8397569628558739 1.6874322117058538 1.697439454695386 2.4043908441158237 1.6866891837788778 0.1376905220750418 0.8373464973283928 0.8973496277761148 1.0846074248494029 0.11752614019308316 1.4482584634558746 0.2913262279387382 1:1.0 2:1.0 3:0.8 4:0.066 5:0.066 6:0.444 7:1.0 8:1.0 9:1.0 10:1.0 11:1.0 12:1.0 13:1.0 14:0.8220000000000001 15:0.622 16:1.0 17:1.0 18:1.0 19:1.0 20:1.0 21:1.0 22:1.0 23:1.0 24:1.0 25:0.244 26:0.066 27:0.066 28:0.244 29:0.444 30:1.0 31:1.0 32:1.0 33:1.0 34:1.0 35:1.0 36:1.0 37:1.0 38:1.0 39:1.0 40:1.0 41:1.0 42:1.0 43:1.0 44:1.0 45:0.8 46:0.622 47:0.066 48:0.066 49:0.066 50:0.066 51:0.066 52:0.622 53:0.8 54:1.0 55:1.0 56:1.0 57:1.0 58:1.0 59:1.0 60:1.0 61:0.29600000000000004 62:1.0 63:0.14800000000000002 64:1.0 65:1.0 66:1.0 67:1.0 68:0.8220000000000001 69:0.244 70:0.066 71:0.066 72:0.066 73:0.066 74:0.244 75:0.444 76:0.8220000000000001 77:1.0 78:1.0 79:1.0 80:1.0 81:1.0 82:1.0 83:1.0 84:1.0 85:1.0 86:1.0 87:0.538 88:1.0 89:1.0 90:1.0 91:0.622 92:0.444 93:0.066 94:0.066 95:0.066 96:0.066 97:0.244 98:1.0 99:1.0 100:1.0 101:1.0 102:1.0 103:1.0 104:1.0 105:1.0 106:1.0 107:1.0 108:1.0 109:1.0 110:1.0 111:1.0 112:1.0 113:1.0 114:1.0 115:0.104 116:0.244 117:0.066 118:0.8220000000000001 119:1.0 120:1.0 121:0.636 122:1.0 123:1.0 124:1.0 125:1.0 126:1.0 127:1.0 128:1.0 129:0.7340000000000001 130:1.0 131:1.0 132:0.266 133:0.066 134:0.266 135:0.066 136:0.266 137:0.066 138:0.266 139:0.066 140:0.266 141:0.066 142:0.184 143:1.0 144:1.0 145:1.0 146:1.0 147:1.0 148:0.718 149:1.0 150:1.0 151:1.0 152:1.0 153:0.066 154:0.066 155:0.066 156:0.066 157:0.066 158:0.066 159:0.066 160:0.066 161:0.066 162:0.066 163:0.244 164:0.62 165:1.0 166:1.0 167:0.8220000000000001 168:1.0 169:0.7160000000000001 170:1.0 171:1.0 172:1.0 173:0.414 174:0.266 175:0.066 176:0.066 177:0.066 178:0.266 179:0.066 180:0.266 181:0.066 182:0.266 183:0.066 184:0.266 185:1.0 186:1.0 187:1.0 188:1.0 189:1.0 190:1.0 191:1.0 192:1.0 193:1.0 194:1.0 195:0.8 196:0.244 197:0.244 198:0.8220000000000001 199:1.0 200:1.0 201:1.0 202:1.0 203:1.0 204:1.0 205:1.0 206:1.0 207:1.0 208:1.0 209:1.0 210:1.0 211:1.0 212:1.0 213:1.0 214:1.0 215:1.0 216:0.266 217:0.066 218:1.0 219:1.0 220:1.0 221:1.0 222:1.0 223:1.0 224:1.0 225:1.0 226:1.0 227:1.0 228:1.0 229:1.0 230:1.0 231:1.0 232:1.0 233:1.0 234:1.0 235:1.0 236:1.0 237:0.066 238:0.244 239:1.0 240:0.738 241:1.0 242:1.0 243:1.0 244:1.0 245:1.0 246:1.0 247:1.0 248:1.0 249:1.0 250:1.0 251:0.406 252:1.0 253:1.0 254:1.0 255:1.0 256:1.0 257:1.0 258:0.266 259:0.244 260:0.8220000000000001 261:1.0 262:1.0 263:1.0 264:0.502 265:1.0 266:1.0 267:1.0 268:1.0 269:1.0 270:1.0 271:0.576 272:1.0 273:1.0 274:1.0 275:1.0 276:1.0 277:1.0 278:1.0 279:1.0 280:1.0 281:1.0 282:1.0 283:1.0 284:1.0 285:1.0 286:1.0 287:1.0 288:1.0 289:1.0 290:1.0 291:1.0 292:1.0 293:1.0 294:1.0 295:1.0 296:1.0 297:1.0 298:1.0 299:1.0 300:1.0 301:1.0 302:1.0 303:1.0 304:1.0 305:1.0 306:1.0 307:1.0 308:1.0 309:1.0 310:1.0 311:1.0 312:1.0 313:1.0 314:1.0 315:1.0 316:1.0 317:1.0 318:1.0 319:0.34199999999999997 320:0.8160000000000001 321:1.0 322:0.8 323:0.444 324:0.266 325:0.244 326:0.266 327:0.444 328:0.8220000000000001 329:0.384 330:1.0 331:1.0 332:1.0 333:1.0 334:0.718 335:1.0 336:1.0 
0.0 0.0 0.16421983508407875 0.0 0.0 0.0 0.0 0.0 0.0 0.4573165418658614 0.0 0.0 0.0 0.0 0.0 0.0 0.0 0.0 0.0 0.0 0.0 0.0 0.0 0.0 0.0 0.0 0.0 0.0 0.0 0.0 0.0 0.0 0.0 1:0.20600000000000002 2:1.0 3:1.0 4:1.0 5:1.0 6:0.444 7:0.066 8:0.444 9:1.0 10:1.0 11:1.0 12:1.0 13:1.0 14:1.0 15:0.444 16:0.266 17:0.8 18:1.0 19:1.0 20:1.0 21:1.0 22:1.0 23:1.0 24:1.0 25:1.0 26:1.0 27:0.266 28:0.444 29:1.0 30:1.0 31:1.0 32:1.0 33:1.0 34:1.0 35:1.0 36:1.0 37:1.0 38:0.30200000000000005 39:1.0 40:1.0 41:1.0 42:1.0 43:1.0 44:1.0 45:0.282 46:1.0 47:1.0 48:1.0 49:0.20600000000000002 50:1.0 51:1.0 52:1.0 53:1.0 54:1.0 55:1.0 56:1.0 57:1.0 58:1.0 59:1.0 60:0.364 61:1.0 62:1.0 63:1.0 64:1.0 65:0.8739999999999999 66:1.0 67:1.0 68:1.0 69:1.0 70:1.0 71:1.0 72:1.0 73:1.0 74:1.0 75:0.306 76:1.0 77:1.0 78:1.0 79:1.0 80:1.0 81:1.0 82:1.0 83:1.0 84:1.0 85:1.0 86:1.0 87:0.772 88:1.0 89:1.0 90:1.0 91:1.0 92:0.858 93:1.0 94:1.0 95:1.0 96:0.52 97:0.518 98:1.0 99:1.0 100:1.0 101:1.0 102:1.0 103:1.0 104:1.0 105:1.0 106:1.0 107:1.0 108:1.0 109:1.0 110:1.0 111:0.622 112:0.8220000000000001 113:1.0 114:1.0 115:1.0 116:1.0 117:1.0 118:1.0 119:1.0 120:1.0 121:1.0 122:1.0 123:1.0 124:1.0 125:1.0 126:1.0 127:1.0 128:1.0 129:1.0 130:1.0 131:0.622 132:0.066 133:0.066 134:0.266 135:0.066 136:0.266 137:0.444 138:0.8220000000000001 139:0.8 140:1.0 141:1.0 142:0.852 143:1.0 144:1.0 145:1.0 146:1.0 147:1.0 148:1.0 149:1.0 150:1.0 151:1.0 152:0.622 153:0.066 154:0.066 155:0.066 156:0.066 157:0.066 158:0.066 159:0.066 160:0.066 161:0.066 162:0.244 163:0.444 164:1.0 165:1.0 166:1.0 167:1.0 168:1.0 169:1.0 170:1.0 171:1.0 172:1.0 173:0.8 174:0.444 175:0.066 176:0.066 177:0.066 178:0.066 179:0.066 180:0.066 181:0.066 182:0.066 183:0.066 184:0.622 185:1.0 186:1.0 187:1.0 188:1.0 189:1.0 190:1.0 191:1.0 192:1.0 193:1.0 194:0.266 195:0.066 196:0.244 197:0.622 198:0.8220000000000001 199:0.8220000000000001 200:0.622 201:0.444 202:0.266 203:0.244 204:0.244 205:0.622 206:1.0 207:0.17 208:0.83 209:1.0 210:1.0 211:1.0 212:1.0 213:1.0 214:0.8220000000000001 215:0.066 216:0.066 217:0.622 218:1.0 219:1.0 220:1.0 221:1.0 222:1.0 223:1.0 224:1.0 225:0.8 226:1.0 227:0.56 228:1.0 229:1.0 230:1.0 231:1.0 232:1.0 233:1.0 234:1.0 235:0.8220000000000001 236:0.066 237:0.066 238:0.622 239:1.0 240:1.0 241:1.0 242:1.0 243:1.0 244:1.0 245:1.0 246:1.0 247:1.0 248:0.732 249:1.0 250:1.0 251:1.0 252:1.0 253:1.0 254:1.0 255:1.0 256:1.0 257:0.444 258:0.8220000000000001 259:0.8220000000000001 260:1.0 261:1.0 262:1.0 263:1.0 264:1.0 265:1.0 266:1.0 267:1.0 268:1.0 269:1.0 270:1.0 271:1.0 272:0.28 273:1.0 274:1.0 275:1.0 276:1.0 277:1.0 278:1.0 279:1.0 280:1.0 281:1.0 282:1.0 283:1.0 284:1.0 285:1.0 286:1.0 287:1.0 288:1.0 289:1.0 290:1.0 291:0.502 292:1.0 293:1.0 294:1.0 295:1.0 296:0.8820000000000001 297:1.0 298:1.0 299:1.0 300:1.0 301:1.0 302:1.0 303:1.0 304:1.0 305:0.8 306:0.8220000000000001 307:1.0 308:1.0 309:1.0 310:0.318 311:1.0 312:1.0 313:1.0 314:1.0 315:1.0 316:1.0 317:0.228 318:1.0 319:1.0 320:1.0 321:1.0 322:1.0 323:1.0 324:1.0 325:1.0 326:0.444 327:0.066 328:0.244 329:0.444 330:1.0 331:1.0 332:1.0 333:1.0 334:1.0 335:1.0 336:0.304 
0.7439610097047649 0.659431420076123 0.0 0.0 0.9460663359282176 0.1328144919161258 0.07183485577053987 0.013664360191196163 0.5889373807819582 0.0 0.2596417573781366 0.3629189616243475 0.5144374973885241 0.6435748850430638 0.7960056829789124 0.3109513788469685 0.403266618823772 0.29627236870006163 0.4984525774082381 0.0 1.018071845948042 0.5447774567079047 0.43954026846818905 0.1929643071030136 0.28934843332898774 0.0 0.33666824393354966 0.027074198645512002 0.0 0.38320670263757045 0.05462119204722047 0.3525657087094658 0.0 1:1.0 2:1.0 3:1.0 4:0.6819999999999999 5:1.0 6:1.0 7:0.066 8:0.066 9:0.066 10:0.066 11:0.066 12:0.066 13:0.066 14:0.066 15:0.066 16:0.066 17:0.8 18:1.0 19:1.0 20:1.0 21:1.0 22:1.0 23:1.0 24:1.0 25:1.0 26:1.0 27:1.0 28:1.0 29:0.622 30:0.622 31:0.622 32:0.622 33:0.444 34:0.622 35:0.8 36:0.622 37:0.244 38:0.8220000000000001 39:1.0 40:1.0 41:1.0 42:1.0 43:1.0 44:0.6 45:1.0 46:1.0 47:0.082 48:1.0 49:1.0 50:1.0 51:1.0 52:1.0 53:1.0 54:1.0 55:1.0 56:1.0 57:1.0 58:1.0 59:1.0 60:1.0 61:1.0 62:0.718 63:1.0 64:1.0 65:1.0 66:1.0 67:1.0 68:1.0 69:1.0 70:1.0 71:1.0 72:1.0 73:1.0 74:1.0 75:1.0 76:1.0 77:1.0 78:1.0 79:1.0 80:1.0 81:1.0 82:1.0 83:1.0 84:1.0 85:1.0 86:1.0 87:1.0 88:1.0 89:0.406 90:1.0 91:1.0 92:1.0 93:1.0 94:1.0 95:1.0 96:1.0 97:1.0 98:0.8220000000000001 99:0.622 100:1.0 101:1.0 102:1.0 103:1.0 104:1.0 105:1.0 106:1.0 107:1.0 108:1.0 109:1.0 110:1.0 111:0.624 112:1.0 113:1.0 114:0.34 115:0.622 116:0.444 117:0.244 118:0.244 119:0.066 120:0.066 121:0.444 122:1.0 123:1.0 124:1.0 125:1.0 126:1.0 127:1.0 128:1.0 129:1.0 130:1.0 131:0.32599999999999996 132:0.622 133:0.244 134:0.266 135:0.066 136:0.066 137:0.066 138:0.066 139:0.066 140:0.066 141:0.066 142:0.444 143:1.0 144:0.8 145:1.0 146:1.0 147:1.0 148:1.0 149:0.298 150:1.0 151:1.0 152:0.622 153:0.066 154:0.066 155:0.066 156:0.066 157:0.066 158:0.066 159:0.066 160:0.244 161:0.244 162:0.444 163:0.622 164:1.0 165:1.0 166:1.0 167:1.0 168:1.0 169:1.0 170:1.0 171:1.0 172:1.0 173:0.8 174:0.066 175:0.066 176:0.066 177:0.066 178:0.444 179:0.622 180:0.8220000000000001 181:1.0 182:1.0 183:1.0 184:1.0 185:1.0 186:1.0 187:1.0 188:1.0 189:0.48 190:1.0 191:1.0 192:1.0 193:0.732 194:1.0 195:0.622 196:0.266 197:0.244 198:0.8220000000000001 199:1.0 200:1.0 201:1.0 202:1.0 203:1.0 204:1.0 205:1.0 206:1.0 207:1.0 208:1.0 209:1.0 210:1.0 211:1.0 212:1.0 213:1.0 214:1.0 215:1.0 216:0.184 217:0.066 218:0.444 219:1.0 220:1.0 221:1.0 222:1.0 223:1.0 224:1.0 225:1.0 226:1.0 227:1.0 228:1.0 229:1.0 230:1.0 231:1.0 232:1.0 233:1.0 234:1.0 235:1.0 236:1.0 237:0.244 238:0.066 239:0.244 240:1.0 241:1.0 242:1.0 243:0.06 244:1.0 245:1.0 246:1.0 247:1.0 248:1.0 249:1.0 250:1.0 251:1.0 252:1.0 253:1.0 254:0.738 255:1.0 256:1.0 257:1.0 258:0.622 259:0.066 260:0.444 261:0.26 262:1.0 263:1.0 264:0.732 265:1.0 266:1.0 267:1.0 268:1.0 269:1.0 270:0.7419999999999999 271:1.0 272:1.0 273:1.0 274:0.556 275:1.0 276:0.444 277:0.244 278:0.622 279:1.0 280:0.622 281:1.0 282:1.0 283:1.0 284:1.0 285:1.0 286:1.0 287:1.0 288:1.0 289:1.0 290:1.0 291:1.0 292:1.0 293:1.0 294:1.0 295:1.0 296:1.0 297:0.066 298:0.066 299:0.066 300:1.0 301:1.0 302:1.0 303:1.0 304:1.0 305:1.0 306:1.0 307:1.0 308:0.624 309:1.0 310:1.0 311:1.0 312:1.0 313:1.0 314:1.0 315:1.0 316:1.0 317:0.8 318:0.066 319:0.066 320:0.066 321:1.0 322:1.0 323:1.0 324:1.0 325:1.0 326:1.0 327:1.0 328:1.0 329:1.0 330:1.0 331:1.0 332:1.0 333:1.0 334:1.0 335:1.0 336:1.0 
0.0 0.0 0.0 0.1758896151726124 0.0 0.0 0.0 0.0 0.0 0.0 0.0 0.0 0.0 0.0 0.0 0.0 0.0 0.0 0.0 0.30494941443693196 0.0 0.0 0.0 0.0 0.0 0.0 0.0 0.0 0.0 0.0 0.0 0.0 0.0 1:1.0 2:1.0 3:1.0 4:1.0 5:1.0 6:0.622 7:0.066 8:0.066 9:0.066 10:0.066 11:0.422 12:1.0 13:0.066 14:0.066 15:0.244 16:1.0 17:1.0 18:1.0 19:0.14800000000000002 20:1.0 21:0.30200000000000005 22:1.0 23:1.0 24:1.0 25:1.0 26:1.0 27:1.0 28:0.8220000000000001 29:0.244 30:0.066 31:0.066 32:0.622 33:1.0 34:0.244 35:0.244 36:0.8220000000000001 37:1.0 38:0.45999999999999996 39:1.0 40:1.0 41:1.0 42:1.0 43:1.0 44:1.0 45:1.0 46:1.0 47:1.0 48:1.0 49:1.0 50:1.0 51:0.8 52:0.8220000000000001 53:0.622 54:1.0 55:0.622 56:1.0 57:1.0 58:1.0 59:1.0 60:1.0 61:1.0 62:1.0 63:1.0 64:1.0 65:1.0 66:1.0 67:1.0 68:1.0 69:1.0 70:1.0 71:1.0 72:1.0 73:1.0 74:1.0 75:1.0 76:1.0 77:1.0 78:1.0 79:1.0 80:0.288 81:1.0 82:1.0 83:1.0 84:1.0 85:1.0 86:1.0 87:1.0 88:1.0 89:1.0 90:1.0 91:1.0 92:1.0 93:1.0 94:1.0 95:1.0 96:1.0 97:1.0 98:1.0 99:0.436 100:1.0 101:1.0 102:1.0 103:1.0 104:1.0 105:1.0 106:1.0 107:1.0 108:1.0 109:1.0 110:0.422 111:1.0 112:1.0 113:1.0 114:1.0 115:0.4 116:1.0 117:0.8220000000000001 118:0.8220000000000001 119:0.622 120:0.622 121:1.0 122:1.0 123:1.0 124:1.0 125:1.0 126:1.0 127:1.0 128:1.0 129:1.0 130:1.0 131:0.8 132:0.622 133:0.444 134:0.444 135:0.244 136:0.266 137:0.066 138:0.066 139:0.066 140:0.066 141:0.066 142:0.8220000000000001 143:1.0 144:1.0 145:1.0 146:1.0 147:1.0 148:1.0 149:1.0 150:1.0 151:1.0 152:0.444 153:0.066 154:0.066 155:0.066 156:0.066 157:0.066 158:0.066 159:0.066 160:0.066 161:0.066 162:0.066 163:0.622 164:1.0 165:1.0 166:1.0 167:1.0 168:1.0 169:1.0 170:1.0 171:1.0 172:1.0 173:0.444 174:0.066 175:0.066 176:0.066 177:0.066 178:0.266 179:0.066 180:0.266 181:0.422 182:0.622 183:0.622 184:1.0 185:1.0 186:1.0 187:1.0 188:1.0 189:1.0 190:1.0 191:1.0 192:1.0 193:1.0 194:0.8220000000000001 195:0.622 196:0.244 197:0.244 198:0.622 199:1.0 200:1.0 201:1.0 202:1.0 203:0.636 204:1.0 205:1.0 206:1.0 207:1.0 208:1.0 209:1.0 210:1.0 211:1.0 212:1.0 213:1.0 214:1.0 215:0.8220000000000001 216:0.266 217:0.066 218:0.8220000000000001 219:1.0 220:1.0 221:1.0 222:1.0 223:1.0 224:1.0 225:1.0 226:1.0 227:1.0 228:1.0 229:1.0 230:1.0 231:1.0 232:1.0 233:1.0 234:1.0 235:1.0 236:0.8220000000000001 237:0.066 238:0.066 239:0.8 240:1.0 241:1.0 242:1.0 243:1.0 244:1.0 245:1.0 246:0.584 247:1.0 248:1.0 249:1.0 250:1.0 251:0.776 252:1.0 253:1.0 254:1.0 255:0.34199999999999997 256:1.0 257:0.8 258:0.066 259:0.066 260:0.622 261:1.0 262:1.0 263:1.0 264:1.0 265:1.0 266:1.0 267:1.0 268:1.0 269:1.0 270:1.0 271:1.0 272:0.52 273:1.0 274:1.0 275:1.0 276:1.0 277:1.0 278:1.0 279:0.444 280:0.8220000000000001 281:1.0 282:1.0 283:1.0 284:0.48 285:1.0 286:1.0 287:1.0 288:1.0 289:1.0 290:1.0 291:1.0 292:1.0 293:1.0 294:1.0 295:1.0 296:1.0 297:1.0 298:1.0 299:1.0 300:1.0 301:1.0 302:1.0 303:1.0 304:1.0 305:1.0 306:1.0 307:1.0 308:1.0 309:1.0 310:1.0 311:1.0 312:1.0 313:1.0 314:1.0 315:1.0 316:1.0 317:1.0 318:1.0 319:1.0 320:1.0 321:0.622 322:0.622 323:0.622 324:0.622 325:0.444 326:0.622 327:0.622 328:0.622 329:0.444 330:0.622 331:0.622 332:0.622 333:0.444 334:0.444 335:0.066 336:0.8220000000000001 
0.0 0.0 0.0 0.0 0.0 0.0 0.0 0.0 0.0 0.0 0.0 0.0 0.0 0.0 0.0 0.0 0.0 0.0 0.28572481543175693 0.0 0.0 0.0 0.0 0.0 0.0 0.0 0.0 0.0 0.0 0.0 0.0 0.0 0.0 1:1.0 2:1.0 3:1.0 4:1.0 5:1.0 6:1.0 7:1.0 8:1.0 9:1.0 10:1.0 11:1.0 12:1.0 13:1.0 14:1.0 15:1.0 16:1.0 17:1.0 18:1.0 19:1.0 20:1.0 21:1.0 22:1.0 23:1.0 24:1.0 25:1.0 26:1.0 27:1.0 28:0.6160000000000001 29:1.0 30:1.0 31:1.0 32:1.0 33:1.0 34:1.0 35:1.0 36:1.0 37:1.0 38:1.0 39:1.0 40:1.0 41:1.0 42:0.556 43:1.0 44:1.0 45:0.778 46:0.764 47:1.0 48:1.0 49:1.0 50:1.0 51:0.494 52:1.0 53:1.0 54:1.0 55:1.0 56:1.0 57:1.0 58:1.0 59:1.0 60:1.0 61:1.0 62:1.0 63:1.0 64:1.0 65:1.0 66:1.0 67:1.0 68:1.0 69:1.0 70:1.0 71:1.0 72:1.0 73:1.0 74:1.0 75:1.0 76:1.0 77:1.0 78:1.0 79:1.0 80:0.44 81:1.0 82:1.0 83:1.0 84:1.0 85:1.0 86:1.0 87:1.0 88:1.0 89:0.564 90:1.0 91:1.0 92:0.698 93:1.0 94:1.0 95:1.0 96:1.0 97:1.0 98:0.34 99:1.0 100:1.0 101:1.0 102:1.0 103:1.0 104:1.0 105:1.0 106:1.0 107:1.0 108:1.0 109:1.0 110:1.0 111:0.622 112:0.304 113:0.8 114:0.8220000000000001 115:0.8 116:1.0 117:1.0 118:1.0 119:1.0 120:1.0 121:1.0 122:1.0 123:1.0 124:1.0 125:1.0 126:1.0 127:1.0 128:1.0 129:1.0 130:1.0 131:1.0 132:0.266 133:0.066 134:0.066 135:0.066 136:0.066 137:0.066 138:0.266 139:0.066 140:0.266 141:0.244 142:0.444 143:1.0 144:1.0 145:1.0 146:1.0 147:1.0 148:1.0 149:1.0 150:1.0 151:1.0 152:0.8220000000000001 153:0.066 154:0.066 155:0.066 156:0.066 157:0.066 158:0.066 159:0.066 160:0.066 161:0.066 162:0.066 163:0.244 164:1.0 165:1.0 166:0.718 167:1.0 168:1.0 169:1.0 170:1.0 171:1.0 172:1.0 173:1.0 174:0.644 175:0.066 176:0.066 177:0.066 178:0.444 179:0.244 180:0.066 181:0.066 182:0.266 183:0.066 184:0.444 185:1.0 186:1.0 187:1.0 188:1.0 189:1.0 190:1.0 191:1.0 192:1.0 193:1.0 194:0.8 195:0.066 196:0.066 197:0.622 198:1.0 199:1.0 200:1.0 201:1.0 202:1.0 203:1.0 204:0.8220000000000001 205:0.8220000000000001 206:1.0 207:1.0 208:1.0 209:1.0 210:1.0 211:1.0 212:1.0 213:1.0 214:1.0 215:0.244 216:0.066 217:0.066 218:1.0 219:1.0 220:1.0 221:1.0 222:1.0 223:1.0 224:1.0 225:1.0 226:1.0 227:1.0 228:1.0 229:1.0 230:1.0 231:1.0 232:1.0 233:1.0 234:1.0 235:1.0 236:0.444 237:0.066 238:0.244 239:0.8220000000000001 240:1.0 241:1.0 242:1.0 243:1.0 244:1.0 245:1.0 246:1.0 247:1.0 248:1.0 249:1.0 250:1.0 251:1.0 252:1.0 253:1.0 254:1.0 255:1.0 256:1.0 257:0.622 258:0.8220000000000001 259:1.0 260:1.0 261:1.0 262:1.0 263:1.0 264:1.0 265:1.0 266:1.0 267:1.0 268:1.0 269:1.0 270:1.0 271:1.0 272:0.5860000000000001 273:0.238 274:1.0 275:1.0 276:1.0 277:1.0 278:1.0 279:1.0 280:1.0 281:1.0 282:1.0 283:1.0 284:1.0 285:1.0 286:1.0 287:1.0 288:1.0 289:1.0 290:1.0 291:1.0 292:1.0 293:1.0 294:1.0 295:1.0 296:1.0 297:1.0 298:1.0 299:1.0 300:1.0 301:1.0 302:1.0 303:1.0 304:1.0 305:1.0 306:1.0 307:1.0 308:1.0 309:1.0 310:0.7340000000000001 311:1.0 312:1.0 313:0.30200000000000005 314:1.0 315:1.0 316:1.0 317:1.0 318:1.0 319:1.0 320:1.0 321:0.044000000000000004 322:1.0 323:1.0 324:1.0 325:1.0 326:0.622 327:0.622 328:0.622 329:1.0 330:1.0 331:1.0 332:1.0 333:1.0 334:1.0 335:1.0 336:1.0 
0.0 0.0 0.976805905400019 0.8303910945431259 0.8426742457667018 0.0 0.7942364718150475 0.0 0.0 0.0 0.0 0.34674555859220285 0.0 0.0 0.0 0.003862326823854323 0.0 0.8425477257769834 0.0 0.0 0.0 0.0 0.0 0.2282482343723989 0.0 0.0021682488381759317 0.015937565154376016 0.0 1.8392696818238754 0.0 0.19982688091077216 0.054571587366021156 0.0 1:1.0 2:1.0 3:1.0 4:1.0 5:1.0 6:1.0 7:1.0 8:1.0 9:1.0 10:1.0 11:1.0 12:1.0 13:0.238 14:1.0 15:1.0 16:0.438 17:1.0 18:0.6 19:1.0 20:1.0 21:0.498 22:1.0 23:1.0 24:1.0 25:1.0 26:1.0 27:1.0 28:1.0 29:1.0 30:1.0 31:1.0 32:1.0 33:1.0 34:1.0 35:1.0 36:1.0 37:1.0 38:1.0 39:1.0 40:1.0 41:1.0 42:1.0 43:0.28400000000000003 44:1.0 45:1.0 46:1.0 47:1.0 48:1.0 49:1.0 50:1.0 51:1.0 52:1.0 53:1.0 54:1.0 55:1.0 56:1.0 57:1.0 58:1.0 59:1.0 60:1.0 61:1.0 62:1.0 63:1.0 64:1.0 65:1.0 66:1.0 67:1.0 68:1.0 69:1.0 70:1.0 71:1.0 72:1.0 73:1.0 74:1.0 75:1.0 76:1.0 77:1.0 78:1.0 79:1.0 80:1.0 81:1.0 82:1.0 83:1.0 84:1.0 85:1.0 86:1.0 87:1.0 88:1.0 89:1.0 90:1.0 91:1.0 92:1.0 93:1.0 94:1.0 95:1.0 96:1.0 97:1.0 98:1.0 99:0.622 100:0.8220000000000001 101:1.0 102:1.0 103:0.696 104:0.74 105:1.0 106:1.0 107:1.0 108:1.0 109:0.636 110:1.0 111:1.0 112:1.0 113:1.0 114:1.0 115:1.0 116:0.8220000000000001 117:0.444 118:0.266 119:0.244 120:0.066 121:0.244 122:1.0 123:1.0 124:1.0 125:1.0 126:0.718 127:1.0 128:1.0 129:1.0 130:1.0 131:1.0 132:1.0 133:1.0 134:0.8220000000000001 135:0.444 136:0.266 137:0.066 138:0.066 139:0.066 140:0.066 141:0.066 142:0.266 143:1.0 144:1.0 145:1.0 146:1.0 147:1.0 148:1.0 149:0.636 150:1.0 151:1.0 152:1.0 153:0.444 154:0.066 155:0.066 156:0.066 157:0.066 158:0.066 159:0.066 160:0.066 161:0.066 162:0.444 163:0.8 164:1.0 165:1.0 166:1.0 167:1.0 168:1.0 169:1.0 170:1.0 171:1.0 172:1.0 173:1.0 174:0.444 175:0.066 176:0.066 177:0.066 178:0.066 179:0.066 180:0.622 181:0.8 182:1.0 183:1.0 184:0.562 185:1.0 186:1.0 187:1.0 188:1.0 189:1.0 190:1.0 191:1.0 192:1.0 193:1.0 194:1.0 195:0.622 196:0.244 197:0.066 198:0.066 199:0.622 200:0.542 201:1.0 202:1.0 203:1.0 204:1.0 205:1.0 206:1.0 207:1.0 208:1.0 209:1.0 210:0.6759999999999999 211:1.0 212:1.0 213:1.0 214:1.0 215:1.0 216:1.0 217:0.622 218:0.066 219:0.422 220:1.0 221:1.0 222:1.0 223:1.0 224:0.266 225:1.0 226:1.0 227:1.0 228:1.0 229:1.0 230:1.0 231:1.0 232:1.0 233:1.0 234:1.0 235:1.0 236:1.0 237:0.324 238:0.266 239:0.066 240:0.444 241:0.594 242:1.0 243:1.0 244:1.0 245:1.0 246:1.0 247:0.184 248:1.0 249:1.0 250:0.358 251:1.0 252:1.0 253:1.0 254:1.0 255:1.0 256:1.0 257:1.0 258:1.0 259:0.066 260:0.066 261:0.066 262:0.8220000000000001 263:1.0 264:1.0 265:1.0 266:1.0 267:1.0 268:1.0 269:1.0 270:1.0 271:1.0 272:1.0 273:1.0 274:1.0 275:1.0 276:1.0 277:1.0 278:1.0 279:1.0 280:0.8220000000000001 281:0.244 282:0.8 283:1.0 284:1.0 285:1.0 286:0.504 287:1.0 288:1.0 289:1.0 290:1.0 291:1.0 292:1.0 293:1.0 294:1.0 295:1.0 296:1.0 297:1.0 298:1.0 299:0.28400000000000003 300:1.0 301:1.0 302:1.0 303:1.0 304:1.0 305:1.0 306:1.0 307:1.0 308:1.0 309:1.0 310:1.0 311:1.0 312:1.0 313:1.0 314:1.0 315:1.0 316:1.0 317:1.0 318:0.65 319:1.0 320:1.0 321:1.0 322:0.444 323:0.622 324:1.0 325:1.0 326:1.0 327:1.0 328:1.0 329:1.0 330:0.8360000000000001 331:1.0 332:1.0 333:1.0 334:1.0 335:1.0 336:0.384 
0.12092843770137011 0.2923261432616404 0.557326649888473 1.3330327519873328 0.4632387464666321 1.1349704754897556 0.0 0.0 0.10858400159832594 2.034192216750431 0.0 0.0 0.0 0.28194887594920315 0.0 0.02570138745242585 0.0 0.48416184115340255 0.0 0.4958576046085608 1.0201714072512718 0.0 0.0 1.816678741393844 0.0 0.0 0.32459717985498415 0.0 0.4458877946234173 0.14345477115997748 0.0 1.036789869868809 0.0 1:1.0 2:1.0 3:1.0 4:1.0 5:0.622 6:0.266 7:0.066 8:0.066 9:0.066 10:0.066 11:0.066 12:0.444 13:0.444 14:1.0 15:1.0 16:1.0 17:1.0 18:1.0 19:1.0 20:1.0 21:1.0 22:1.0 23:1.0 24:1.0 25:1.0 26:1.0 27:0.8220000000000001 28:0.622 29:0.244 30:0.066 31:0.066 32:0.066 33:0.066 34:0.066 35:0.244 36:1.0 37:1.0 38:1.0 39:1.0 40:1.0 41:1.0 42:1.0 43:1.0 44:1.0 45:1.0 46:1.0 47:1.0 48:0.384 49:1.0 50:1.0 51:0.8 52:0.444 53:0.066 54:0.066 55:0.066 56:0.14800000000000002 57:1.0 58:1.0 59:1.0 60:1.0 61:1.0 62:1.0 63:1.0 64:1.0 65:1.0 66:0.358 67:1.0 68:1.0 69:1.0 70:1.0 71:1.0 72:1.0 73:1.0 74:1.0 75:0.8 76:0.444 77:0.8 78:1.0 79:1.0 80:1.0 81:1.0 82:1.0 83:1.0 84:1.0 85:1.0 86:1.0 87:1.0 88:1.0 89:1.0 90:0.622 91:0.8 92:1.0 93:0.6 94:1.0 95:0.438 96:1.0 97:1.0 98:0.38599999999999995 99:1.0 100:1.0 101:1.0 102:0.504 103:1.0 104:1.0 105:1.0 106:1.0 107:1.0 108:1.0 109:1.0 110:0.8220000000000001 111:0.066 112:0.244 113:0.244 114:0.622 115:1.0 116:1.0 117:1.0 118:1.0 119:1.0 120:1.0 121:1.0 122:1.0 123:1.0 124:1.0 125:1.0 126:1.0 127:1.0 128:1.0 129:1.0 130:1.0 131:0.244 132:0.066 133:0.066 134:0.066 135:0.066 136:0.266 137:0.244 138:1.0 139:1.0 140:1.0 141:1.0 142:1.0 143:1.0 144:1.0 145:1.0 146:1.0 147:1.0 148:1.0 149:1.0 150:1.0 151:1.0 152:0.8220000000000001 153:0.244 154:0.066 155:0.066 156:0.066 157:0.066 158:0.066 159:0.066 160:0.266 161:0.622 162:1.0 163:1.0 164:1.0 165:1.0 166:1.0 167:1.0 168:1.0 169:1.0 170:1.0 171:1.0 172:0.444 173:0.066 174:0.066 175:0.066 176:0.444 177:0.066 178:0.066 179:0.066 180:0.066 181:0.066 182:0.066 183:0.066 184:0.8220000000000001 185:1.0 186:1.0 187:1.0 188:1.0 189:1.0 190:1.0 191:1.0 192:1.0 193:0.244 194:0.066 195:0.066 196:1.0 197:1.0 198:1.0 199:0.8220000000000001 200:0.444 201:0.066 202:0.066 203:0.066 204:0.244 205:1.0 206:1.0 207:1.0 208:1.0 209:1.0 210:1.0 211:1.0 212:1.0 213:0.20199999999999999 214:0.066 215:0.066 216:0.622 217:1.0 218:1.0 219:1.0 220:0.72 221:1.0 222:1.0 223:0.622 224:0.444 225:0.244 226:1.0 227:1.0 228:0.34 229:1.0 230:1.0 231:1.0 232:1.0 233:1.0 234:1.0 235:0.8220000000000001 236:0.8220000000000001 237:1.0 238:1.0 239:1.0 240:1.0 241:1.0 242:1.0 243:0.762 244:1.0 245:1.0 246:1.0 247:1.0 248:1.0 249:1.0 250:1.0 251:1.0 252:1.0 253:1.0 254:1.0 255:1.0 256:1.0 257:1.0 258:1.0 259:1.0 260:1.0 261:1.0 262:1.0 263:1.0 264:1.0 265:1.0 266:1.0 267:1.0 268:1.0 269:1.0 270:1.0 271:1.0 272:1.0 273:1.0 274:1.0 275:1.0 276:1.0 277:1.0 278:0.184 279:1.0 280:1.0 281:1.0 282:1.0 283:1.0 284:1.0 285:1.0 286:1.0 287:0.44599999999999995 288:1.0 289:1.0 290:1.0 291:1.0 292:1.0 293:1.0 294:0.7020000000000001 295:1.0 296:1.0 297:1.0 298:1.0 299:1.0 300:1.0 301:1.0 302:1.0 303:1.0 304:1.0 305:1.0 306:0.644 307:1.0 308:1.0 309:1.0 310:1.0 311:1.0 312:1.0 313:1.0 314:1.0 315:1.0 316:1.0 317:1.0 318:1.0 319:1.0 320:1.0 321:1.0 322:1.0 323:1.0 324:1.0 325:1.0 326:0.30200000000000005 327:1.0 328:1.0 329:1.0 330:1.0 331:1.0 332:1.0 333:1.0 334:1.0 335:1.0 336:0.8160000000000001 
2.058070258905115 1.3575021724475578 0.5539408888315462 1.058595213842619 1.9845561940529124 0.657623469927223 0.93853140274977 2.161944838489237 1.661531783222135 0.3359703273060216 1.5963678189481665 1.9195709121498952 2.13437613625867 2.2364620825476966 1.6837196812183388 1.923054699921888 1.9550567714510982 1.3583860600558313 2.0632581739835953 2.205287809274324 0.47314477725115395 1.6155064491105307 2.259557229284054 2.532758007619704 2.6978763342039764 3.0010921947662754 0.5657532183542854 1.4561762251285884 1.8976170520466045 1.7596520979048398 1.092960309708856 1.2281133102250836 0.6793270727769283 1:1.0 2:1.0 3:1.0 4:1.0 5:1.0 6:1.0 7:0.162 8:0.066 9:0.066 10:0.266 11:1.0 12:0.5800000000000001 13:1.0 14:1.0 15:0.444 16:0.658 17:1.0 18:1.0 19:1.0 20:0.7020000000000001 21:1.0 22:1.0 23:1.0 24:1.0 25:1.0 26:1.0 27:1.0 28:1.0 29:0.622 30:0.266 31:0.244 32:0.8220000000000001 33:1.0 34:1.0 35:1.0 36:1.0 37:1.0 38:1.0 39:1.0 40:1.0 41:1.0 42:1.0 43:1.0 44:1.0 45:1.0 46:1.0 47:1.0 48:1.0 49:1.0 50:1.0 51:1.0 52:1.0 53:1.0 54:1.0 55:1.0 56:1.0 57:1.0 58:1.0 59:1.0 60:1.0 61:1.0 62:1.0 63:1.0 64:1.0 65:1.0 66:1.0 67:1.0 68:1.0 69:1.0 70:1.0 71:1.0 72:1.0 73:0.14 74:1.0 75:1.0 76:1.0 77:1.0 78:1.0 79:1.0 80:1.0 81:1.0 82:1.0 83:1.0 84:1.0 85:1.0 86:1.0 87:1.0 88:1.0 89:1.0 90:0.8220000000000001 91:1.0 92:1.0 93:1.0 94:1.0 95:1.0 96:1.0 97:1.0 98:1.0 99:1.0 100:1.0 101:0.712 102:1.0 103:1.0 104:1.0 105:1.0 106:1.0 107:1.0 108:0.424 109:1.0 110:0.8220000000000001 111:0.066 112:0.244 113:0.444 114:0.8220000000000001 115:1.0 116:1.0 117:0.576 118:1.0 119:0.9179999999999999 120:0.354 121:1.0 122:1.0 123:1.0 124:1.0 125:1.0 126:1.0 127:1.0 128:1.0 129:1.0 130:1.0 131:0.444 132:0.066 133:0.066 134:0.066 135:0.066 136:0.266 137:0.444 138:1.0 139:1.0 140:1.0 141:1.0 142:1.0 143:1.0 144:1.0 145:1.0 146:1.0 147:1.0 148:1.0 149:1.0 150:1.0 151:1.0 152:0.8220000000000001 153:0.244 154:0.066 155:0.066 156:0.066 157:0.066 158:0.066 159:0.244 160:0.266 161:0.622 162:1.0 163:1.0 164:1.0 165:1.0 166:1.0 167:1.0 168:0.6819999999999999 169:1.0 170:1.0 171:1.0 172:0.8220000000000001 173:0.066 174:0.066 175:0.066 176:0.066 177:0.066 178:0.066 179:0.066 180:0.066 181:0.066 182:0.066 183:0.066 184:0.8220000000000001 185:1.0 186:1.0 187:1.0 188:1.0 189:0.22399999999999998 190:1.0 191:1.0 192:1.0 193:0.244 194:0.066 195:0.244 196:1.0 197:1.0 198:1.0 199:0.8 200:0.444 201:0.244 202:0.066 203:0.066 204:0.244 205:0.8220000000000001 206:1.0 207:1.0 208:1.0 209:1.0 210:1.0 211:1.0 212:1.0 213:1.0 214:0.266 215:0.066 216:0.622 217:1.0 218:1.0 219:1.0 220:1.0 221:1.0 222:1.0 223:0.622 224:0.444 225:0.244 226:1.0 227:1.0 228:1.0 229:1.0 230:1.0 231:1.0 232:1.0 233:1.0 234:1.0 235:0.8220000000000001 236:0.622 237:0.622 238:1.0 239:1.0 240:1.0 241:1.0 242:1.0 243:0.8220000000000001 244:0.622 245:0.622 246:1.0 247:1.0 248:1.0 249:1.0 250:1.0 251:1.0 252:1.0 253:1.0 254:0.7979999999999999 255:1.0 256:1.0 257:1.0 258:1.0 259:1.0 260:1.0 261:0.622 262:0.622 263:0.066 264:0.066 265:0.066 266:0.444 267:1.0 268:1.0 269:1.0 270:1.0 271:1.0 272:0.624 273:1.0 274:1.0 275:1.0 276:0.674 277:1.0 278:1.0 279:0.622 280:0.444 281:0.244 282:0.066 283:0.066 284:0.066 285:0.066 286:0.066 287:0.244 288:1.0 289:1.0 290:1.0 291:1.0 292:1.0 293:1.0 294:1.0 295:1.0 296:1.0 297:1.0 298:0.444 299:0.066 300:0.066 301:0.066 302:0.066 303:0.066 304:0.066 305:0.066 306:0.444 307:0.444 308:0.4 309:1.0 310:1.0 311:1.0 312:1.0 313:1.0 314:1.0 315:1.0 316:1.0 317:1.0 318:1.0 319:0.444 320:0.066 321:0.066 322:0.066 323:0.244 324:0.444 325:0.066 326:1.0 327:0.28 328:1.0 329:1.0 330:1.0 331:1.0 332:1.0 333:1.0 334:1.0 335:1.0 336:1.0 
0.0 0.0 2.4852167409389763 1.6990460059712313 0.0 2.0857202228568914 0.25285862632584144 0.0 0.0 3.169758894718813 0.0 0.0 0.0 0.3282122622490469 0.0 0.0 0.0 0.0 0.0 0.0 1.6809998102653638 0.0 0.0 2.840704717635129 0.0 0.0 0.6842368482718837 0.06984962046169482 0.8986509787672404 0.1406325497785014 0.24536548608887862 0.0 0.0 1:1.0 2:1.0 3:0.244 4:0.066 5:0.066 6:0.266 7:0.444 8:1.0 9:0.8 10:0.444 11:0.066 12:0.184 13:0.066 14:0.622 15:1.0 16:1.0 17:1.0 18:1.0 19:1.0 20:1.0 21:0.364 22:1.0 23:0.912 24:1.0 25:0.8220000000000001 26:0.8220000000000001 27:1.0 28:1.0 29:1.0 30:1.0 31:1.0 32:1.0 33:0.8220000000000001 34:1.0 35:1.0 36:1.0 37:1.0 38:1.0 39:1.0 40:1.0 41:0.74 42:0.594 43:1.0 44:1.0 45:1.0 46:1.0 47:1.0 48:1.0 49:1.0 50:1.0 51:1.0 52:1.0 53:0.9179999999999999 54:1.0 55:1.0 56:1.0 57:1.0 58:1.0 59:1.0 60:1.0 61:1.0 62:1.0 63:1.0 64:1.0 65:1.0 66:1.0 67:1.0 68:0.436 69:1.0 70:1.0 71:1.0 72:1.0 73:1.0 74:1.0 75:1.0 76:0.328 77:1.0 78:1.0 79:1.0 80:1.0 81:1.0 82:1.0 83:1.0 84:1.0 85:1.0 86:1.0 87:1.0 88:1.0 89:1.0 90:1.0 91:1.0 92:1.0 93:1.0 94:1.0 95:1.0 96:1.0 97:1.0 98:1.0 99:1.0 100:1.0 101:1.0 102:0.8 103:0.46399999999999997 104:1.0 105:1.0 106:1.0 107:1.0 108:1.0 109:1.0 110:1.0 111:0.8 112:1.0 113:1.0 114:1.0 115:1.0 116:1.0 117:1.0 118:1.0 119:1.0 120:0.244 121:1.0 122:1.0 123:1.0 124:0.3 125:1.0 126:1.0 127:1.0 128:0.858 129:1.0 130:1.0 131:0.444 132:0.066 133:0.044000000000000004 134:0.444 135:0.444 136:0.8220000000000001 137:1.0 138:1.0 139:1.0 140:1.0 141:1.0 142:1.0 143:0.34199999999999997 144:1.0 145:1.0 146:1.0 147:1.0 148:1.0 149:1.0 150:1.0 151:1.0 152:0.126 153:0.066 154:0.066 155:0.066 156:0.066 157:0.066 158:0.244 159:0.444 160:0.622 161:0.8 162:1.0 163:1.0 164:1.0 165:1.0 166:1.0 167:1.0 168:1.0 169:1.0 170:1.0 171:1.0 172:1.0 173:0.622 174:0.066 175:0.066 176:0.066 177:0.066 178:0.066 179:0.066 180:0.066 181:0.066 182:0.066 183:0.066 184:0.622 185:1.0 186:1.0 187:1.0 188:0.88 189:1.0 190:1.0 191:1.0 192:1.0 193:0.622 194:0.244 195:0.066 196:0.244 197:0.444 198:0.266 199:0.244 200:0.244 201:0.066 202:0.066 203:0.066 204:0.066 205:0.8 206:1.0 207:1.0 208:1.0 209:1.0 210:1.0 211:1.0 212:1.0 213:1.0 214:0.444 215:0.066 216:0.266 217:0.8 218:1.0 219:1.0 220:1.0 221:0.8 222:0.8220000000000001 223:0.422 224:0.266 225:0.066 226:1.0 227:1.0 228:1.0 229:1.0 230:1.0 231:1.0 232:0.636 233:1.0 234:1.0 235:0.244 236:0.066 237:0.244 238:1.0 239:1.0 240:1.0 241:1.0 242:1.0 243:0.14 244:1.0 245:1.0 246:0.8220000000000001 247:1.0 248:1.0 249:0.416 250:1.0 251:1.0 252:1.0 253:1.0 254:1.0 255:1.0 256:0.622 257:0.444 258:0.622 259:1.0 260:1.0 261:1.0 262:1.0 263:1.0 264:1.0 265:1.0 266:1.0 267:1.0 268:1.0 269:1.0 270:1.0 271:1.0 272:1.0 273:1.0 274:1.0 275:1.0 276:1.0 277:1.0 278:1.0 279:1.0 280:1.0 281:1.0 282:1.0 283:1.0 284:0.222 285:1.0 286:1.0 287:1.0 288:1.0 289:1.0 290:1.0 291:1.0 292:1.0 293:1.0 294:1.0 295:1.0 296:1.0 297:1.0 298:1.0 299:0.62 300:1.0 301:1.0 302:1.0 303:1.0 304:0.7419999999999999 305:1.0 306:1.0 307:1.0 308:1.0 309:1.0 310:1.0 311:1.0 312:1.0 313:1.0 314:1.0 315:0.14 316:1.0 317:1.0 318:1.0 319:1.0 320:1.0 321:1.0 322:1.0 323:1.0 324:1.0 325:1.0 326:1.0 327:1.0 328:1.0 329:0.538 330:1.0 331:0.6160000000000001 332:1.0 333:1.0 334:1.0 335:1.0 336:0.68 
0.0 0.14318833160927655 0.11178782858312138 0.0 0.2338924387174361 0.0 0.0 0.0 0.0 0.0 0.0 0.0 0.0 0.0 0.0 0.0 0.0 1.77218790205395E-4 0.0 0.0 0.0 0.0 0.0 0.0 0.0 0.0 0.0 0.0 0.0 0.0 0.0 0.0 0.0 1:1.0 2:1.0 3:1.0 4:1.0 5:1.0 6:1.0 7:0.444 8:0.622 9:1.0 10:1.0 11:0.244 12:0.066 13:0.066 14:0.066 15:0.422 16:1.0 17:1.0 18:1.0 19:1.0 20:1.0 21:1.0 22:1.0 23:1.0 24:1.0 25:1.0 26:1.0 27:1.0 28:1.0 29:1.0 30:1.0 31:1.0 32:1.0 33:0.622 34:0.622 35:0.622 36:1.0 37:1.0 38:0.45999999999999996 39:1.0 40:1.0 41:1.0 42:1.0 43:1.0 44:1.0 45:1.0 46:1.0 47:1.0 48:1.0 49:1.0 50:1.0 51:1.0 52:1.0 53:1.0 54:1.0 55:1.0 56:1.0 57:1.0 58:1.0 59:1.0 60:1.0 61:1.0 62:0.554 63:1.0 64:1.0 65:1.0 66:1.0 67:1.0 68:1.0 69:1.0 70:1.0 71:1.0 72:1.0 73:1.0 74:1.0 75:1.0 76:1.0 77:1.0 78:0.8220000000000001 79:1.0 80:1.0 81:1.0 82:1.0 83:1.0 84:1.0 85:1.0 86:1.0 87:0.306 88:1.0 89:1.0 90:1.0 91:1.0 92:1.0 93:1.0 94:1.0 95:1.0 96:0.672 97:1.0 98:1.0 99:1.0 100:1.0 101:0.20600000000000002 102:1.0 103:1.0 104:1.0 105:1.0 106:1.0 107:1.0 108:1.0 109:1.0 110:1.0 111:1.0 112:1.0 113:1.0 114:1.0 115:1.0 116:1.0 117:1.0 118:0.266 119:1.0 120:1.0 121:1.0 122:1.0 123:1.0 124:1.0 125:1.0 126:1.0 127:1.0 128:1.0 129:1.0 130:1.0 131:1.0 132:0.444 133:0.244 134:0.444 135:0.244 136:0.266 137:0.066 138:0.266 139:0.244 140:0.266 141:0.244 142:0.622 143:1.0 144:1.0 145:1.0 146:1.0 147:0.444 148:1.0 149:1.0 150:1.0 151:1.0 152:1.0 153:0.244 154:0.066 155:0.066 156:0.066 157:0.066 158:0.066 159:0.066 160:0.066 161:0.066 162:0.066 163:0.244 164:1.0 165:0.0 166:1.0 167:1.0 168:0.29000000000000004 169:1.0 170:1.0 171:1.0 172:1.0 173:1.0 174:0.266 175:0.066 176:0.066 177:0.066 178:0.066 179:0.066 180:0.066 181:0.066 182:0.066 183:0.066 184:0.266 185:1.0 186:0.35 187:1.0 188:1.0 189:1.0 190:1.0 191:1.0 192:1.0 193:1.0 194:1.0 195:0.622 196:0.244 197:0.244 198:0.066 199:0.8 200:0.162 201:0.8 202:0.8220000000000001 203:0.8220000000000001 204:0.8220000000000001 205:0.8 206:1.0 207:1.0 208:1.0 209:1.0 210:1.0 211:1.0 212:1.0 213:1.0 214:1.0 215:0.8 216:0.266 217:0.066 218:0.644 219:1.0 220:1.0 221:1.0 222:1.0 223:1.0 224:1.0 225:1.0 226:1.0 227:1.0 228:1.0 229:1.0 230:0.8600000000000001 231:1.0 232:1.0 233:1.0 234:0.5800000000000001 235:1.0 236:0.518 237:0.066 238:0.066 239:0.622 240:1.0 241:0.14800000000000002 242:1.0 243:1.0 244:1.0 245:1.0 246:1.0 247:1.0 248:1.0 249:1.0 250:1.0 251:1.0 252:1.0 253:1.0 254:1.0 255:1.0 256:1.0 257:1.0 258:0.266 259:0.066 260:0.622 261:1.0 262:1.0 263:1.0 264:1.0 265:1.0 266:1.0 267:1.0 268:1.0 269:1.0 270:1.0 271:1.0 272:1.0 273:1.0 274:1.0 275:1.0 276:0.718 277:1.0 278:1.0 279:0.8220000000000001 280:1.0 281:1.0 282:1.0 283:1.0 284:1.0 285:1.0 286:1.0 287:1.0 288:1.0 289:1.0 290:1.0 291:1.0 292:1.0 293:1.0 294:1.0 295:1.0 296:1.0 297:1.0 298:1.0 299:1.0 300:1.0 301:1.0 302:1.0 303:1.0 304:1.0 305:1.0 306:1.0 307:1.0 308:1.0 309:1.0 310:1.0 311:1.0 312:1.0 313:1.0 314:1.0 315:1.0 316:1.0 317:1.0 318:1.0 319:1.0 320:1.0 321:1.0 322:1.0 323:1.0 324:1.0 325:1.0 326:1.0 327:0.8220000000000001 328:0.8220000000000001 329:0.444 330:0.622 331:1.0 332:1.0 333:1.0 334:1.0 335:1.0 336:1.0 
0.0 0.0 0.0 0.0 0.09045242717466254 0.0 0.0 0.0 0.0 0.0 0.0 0.0 0.0 0.0 0.0 0.0 0.0 0.0 0.0 0.0 0.0 0.0 0.0 0.0 0.0 0.0 0.0 0.0 0.0 0.0 0.0 0.0 0.0 1:1.0 2:1.0 3:1.0 4:1.0 5:1.0 6:1.0 7:1.0 8:1.0 9:1.0 10:1.0 11:1.0 12:0.718 13:1.0 14:1.0 15:1.0 16:1.0 17:1.0 18:1.0 19:0.732 20:1.0 21:0.304 22:1.0 23:1.0 24:1.0 25:1.0 26:1.0 27:1.0 28:1.0 29:1.0 30:1.0 31:1.0 32:1.0 33:1.0 34:1.0 35:1.0 36:1.0 37:1.0 38:1.0 39:1.0 40:1.0 41:1.0 42:1.0 43:1.0 44:1.0 45:1.0 46:1.0 47:1.0 48:1.0 49:1.0 50:0.28 51:1.0 52:1.0 53:1.0 54:1.0 55:1.0 56:1.0 57:1.0 58:0.762 59:1.0 60:1.0 61:1.0 62:1.0 63:1.0 64:1.0 65:1.0 66:1.0 67:1.0 68:1.0 69:1.0 70:1.0 71:1.0 72:1.0 73:1.0 74:1.0 75:1.0 76:1.0 77:1.0 78:1.0 79:1.0 80:1.0 81:1.0 82:1.0 83:1.0 84:1.0 85:1.0 86:1.0 87:1.0 88:1.0 89:1.0 90:1.0 91:1.0 92:1.0 93:1.0 94:1.0 95:1.0 96:1.0 97:1.0 98:1.0 99:1.0 100:1.0 101:1.0 102:1.0 103:1.0 104:1.0 105:1.0 106:1.0 107:1.0 108:1.0 109:1.0 110:1.0 111:0.622 112:0.622 113:0.8 114:0.8220000000000001 115:0.8 116:1.0 117:1.0 118:1.0 119:1.0 120:1.0 121:1.0 122:1.0 123:0.06 124:1.0 125:1.0 126:1.0 127:1.0 128:1.0 129:1.0 130:1.0 131:1.0 132:0.266 133:0.066 134:0.066 135:0.066 136:0.066 137:0.066 138:0.266 139:0.066 140:0.266 141:0.244 142:0.444 143:1.0 144:1.0 145:1.0 146:1.0 147:1.0 148:1.0 149:1.0 150:0.288 151:1.0 152:0.8220000000000001 153:0.066 154:0.066 155:0.066 156:0.066 157:0.066 158:0.066 159:0.066 160:0.066 161:0.066 162:0.066 163:0.244 164:1.0 165:1.0 166:1.0 167:1.0 168:0.44 169:1.0 170:1.0 171:1.0 172:1.0 173:1.0 174:0.644 175:0.066 176:0.066 177:0.066 178:0.444 179:0.244 180:0.266 181:0.066 182:0.266 183:0.066 184:0.444 185:1.0 186:1.0 187:1.0 188:1.0 189:1.0 190:1.0 191:1.0 192:1.0 193:1.0 194:0.8 195:0.066 196:0.066 197:0.622 198:1.0 199:1.0 200:1.0 201:1.0 202:1.0 203:0.4 204:0.8220000000000001 205:0.8220000000000001 206:1.0 207:1.0 208:1.0 209:1.0 210:1.0 211:1.0 212:1.0 213:1.0 214:1.0 215:0.244 216:0.066 217:0.066 218:1.0 219:1.0 220:1.0 221:1.0 222:1.0 223:1.0 224:1.0 225:1.0 226:1.0 227:1.0 228:0.738 229:1.0 230:1.0 231:1.0 232:1.0 233:1.0 234:1.0 235:1.0 236:0.444 237:0.066 238:0.244 239:0.8220000000000001 240:1.0 241:1.0 242:1.0 243:1.0 244:1.0 245:1.0 246:1.0 247:1.0 248:1.0 249:1.0 250:1.0 251:0.438 252:1.0 253:1.0 254:1.0 255:1.0 256:1.0 257:0.622 258:0.8220000000000001 259:1.0 260:1.0 261:1.0 262:1.0 263:1.0 264:1.0 265:1.0 266:1.0 267:1.0 268:1.0 269:1.0 270:1.0 271:1.0 272:1.0 273:1.0 274:1.0 275:1.0 276:1.0 277:1.0 278:1.0 279:0.438 280:1.0 281:1.0 282:1.0 283:1.0 284:1.0 285:1.0 286:1.0 287:1.0 288:1.0 289:1.0 290:1.0 291:1.0 292:1.0 293:1.0 294:1.0 295:1.0 296:1.0 297:1.0 298:1.0 299:1.0 300:0.504 301:1.0 302:1.0 303:1.0 304:1.0 305:1.0 306:1.0 307:1.0 308:1.0 309:1.0 310:1.0 311:1.0 312:1.0 313:1.0 314:1.0 315:1.0 316:1.0 317:1.0 318:1.0 319:0.5980000000000001 320:1.0 321:1.0 322:1.0 323:1.0 324:1.0 325:1.0 326:1.0 327:1.0 328:1.0 329:1.0 330:1.0 331:1.0 332:1.0 333:1.0 334:1.0 335:1.0 336:1.0 
0.0 0.0 0.0 0.26171743807329706 0.2949570690138823 0.1021459707051518 0.05448397035429152 0.05176924305617492 0.1483967682057478 0.0 2.2472724402730252E-4 0.08500503204870088 0.26233072123385404 0.057546572407430434 0.17636800876607503 0.10043735819704888 0.29319893050982815 0.0 0.0 0.0 0.0 0.5317803628960706 0.03801045190625927 0.0 0.3288237680848722 0.45307928732075414 0.2682705690217744 0.0 0.3015566429528849 0.12958687957493298 0.29585934744647424 0.4151253072624284 0.11989589004324536 1:1.0 2:1.0 3:0.5980000000000001 4:1.0 5:1.0 6:0.46799999999999997 7:1.0 8:1.0 9:1.0 10:1.0 11:1.0 12:1.0 13:0.712 14:0.498 15:1.0 16:1.0 17:1.0 18:1.0 19:0.34 20:1.0 21:1.0 22:1.0 23:1.0 24:1.0 25:1.0 26:1.0 27:0.77 28:1.0 29:1.0 30:1.0 31:1.0 32:1.0 33:1.0 34:1.0 35:1.0 36:1.0 37:1.0 38:1.0 39:1.0 40:1.0 41:1.0 42:1.0 43:1.0 44:1.0 45:1.0 46:1.0 47:1.0 48:1.0 49:1.0 50:1.0 51:1.0 52:0.436 53:1.0 54:1.0 55:1.0 56:1.0 57:1.0 58:1.0 59:1.0 60:1.0 61:1.0 62:0.698 63:1.0 64:1.0 65:1.0 66:1.0 67:1.0 68:1.0 69:1.0 70:1.0 71:1.0 72:1.0 73:1.0 74:1.0 75:1.0 76:1.0 77:0.8 78:0.622 79:1.0 80:1.0 81:1.0 82:1.0 83:1.0 84:1.0 85:0.376 86:1.0 87:1.0 88:1.0 89:1.0 90:1.0 91:1.0 92:1.0 93:1.0 94:1.0 95:1.0 96:0.8220000000000001 97:0.244 98:0.066 99:0.066 100:1.0 101:1.0 102:1.0 103:1.0 104:1.0 105:1.0 106:1.0 107:1.0 108:1.0 109:1.0 110:1.0 111:1.0 112:1.0 113:1.0 114:1.0 115:0.622 116:0.066 117:0.066 118:0.066 119:0.066 120:0.066 121:0.444 122:1.0 123:1.0 124:1.0 125:1.0 126:1.0 127:1.0 128:1.0 129:1.0 130:1.0 131:1.0 132:1.0 133:0.8 134:0.622 135:0.066 136:0.066 137:0.066 138:0.066 139:0.066 140:0.184 141:0.044000000000000004 142:1.0 143:1.0 144:1.0 145:1.0 146:1.0 147:1.0 148:1.0 149:1.0 150:1.0 151:1.0 152:0.8220000000000001 153:0.444 154:0.244 155:0.066 156:0.066 157:0.066 158:0.066 159:0.244 160:0.622 161:0.8220000000000001 162:1.0 163:1.0 164:1.0 165:0.7340000000000001 166:1.0 167:1.0 168:1.0 169:1.0 170:0.518 171:1.0 172:1.0 173:0.422 174:0.066 175:0.066 176:0.066 177:0.066 178:0.266 179:0.444 180:1.0 181:1.0 182:1.0 183:1.0 184:1.0 185:1.0 186:1.0 187:1.0 188:1.0 189:1.0 190:1.0 191:1.0 192:1.0 193:0.34199999999999997 194:1.0 195:0.244 196:0.244 197:0.066 198:0.266 199:0.8220000000000001 200:1.0 201:1.0 202:1.0 203:1.0 204:1.0 205:1.0 206:1.0 207:1.0 208:1.0 209:0.222 210:1.0 211:1.0 212:0.694 213:1.0 214:1.0 215:1.0 216:0.8220000000000001 217:0.244 218:0.066 219:0.126 220:1.0 221:1.0 222:1.0 223:1.0 224:1.0 225:1.0 226:1.0 227:1.0 228:1.0 229:1.0 230:1.0 231:1.0 232:0.502 233:0.7160000000000001 234:1.0 235:1.0 236:1.0 237:1.0 238:0.244 239:0.066 240:0.622 241:1.0 242:1.0 243:0.504 244:1.0 245:1.0 246:1.0 247:1.0 248:1.0 249:1.0 250:1.0 251:1.0 252:0.8600000000000001 253:1.0 254:1.0 255:1.0 256:1.0 257:1.0 258:0.304 259:0.066 260:0.066 261:0.066 262:0.8220000000000001 263:1.0 264:1.0 265:1.0 266:1.0 267:1.0 268:1.0 269:1.0 270:1.0 271:1.0 272:1.0 273:1.0 274:1.0 275:1.0 276:1.0 277:1.0 278:1.0 279:1.0 280:0.622 281:0.066 282:0.444 283:1.0 284:1.0 285:1.0 286:1.0 287:1.0 288:1.0 289:1.0 290:1.0 291:1.0 292:1.0 293:1.0 294:0.044000000000000004 295:1.0 296:1.0 297:1.0 298:1.0 299:1.0 300:1.0 301:1.0 302:0.8220000000000001 303:1.0 304:1.0 305:1.0 306:1.0 307:1.0 308:1.0 309:1.0 310:1.0 311:1.0 312:1.0 313:1.0 314:1.0 315:1.0 316:1.0 317:1.0 318:1.0 319:1.0 320:0.362 321:1.0 322:1.0 323:1.0 324:1.0 325:1.0 326:1.0 327:0.288 328:1.0 329:1.0 330:1.0 331:1.0 332:1.0 333:1.0 334:1.0 335:1.0 336:1.0 
0.7457083601952366 0.7130938239242746 0.1750814089381234 0.0 0.17924525009439596 0.20299626570014065 0.3470110875826461 0.6884847530423218 0.7469712938706187 0.0 0.6922884852195714 0.49297280838077734 0.2970466457707059 0.3857250540784462 0.7806012189551962 0.3662520005449582 0.6193345009731994 0.3785043934009457 0.06199151713855237 0.0 0.03132995023071242 0.5926255138990769 0.5698162233662842 0.0 1.0629985494347083 0.13113341807905096 0.42082637804779544 0.8539871148474346 0.13938276742721045 0.4604300462899962 0.45713076188014956 0.9709996426851767 0.22300092127577276 1:1.0 2:1.0 3:1.0 4:1.0 5:0.364 6:1.0 7:1.0 8:1.0 9:1.0 10:1.0 11:1.0 12:1.0 13:1.0 14:1.0 15:1.0 16:1.0 17:1.0 18:1.0 19:1.0 20:1.0 21:1.0 22:1.0 23:0.636 24:1.0 25:1.0 26:1.0 27:1.0 28:1.0 29:1.0 30:1.0 31:1.0 32:1.0 33:1.0 34:1.0 35:1.0 36:1.0 37:1.0 38:1.0 39:1.0 40:1.0 41:1.0 42:1.0 43:0.622 44:1.0 45:1.0 46:1.0 47:1.0 48:1.0 49:1.0 50:1.0 51:1.0 52:1.0 53:1.0 54:1.0 55:1.0 56:1.0 57:1.0 58:1.0 59:1.0 60:0.306 61:0.262 62:1.0 63:1.0 64:1.0 65:1.0 66:1.0 67:1.0 68:1.0 69:1.0 70:1.0 71:1.0 72:1.0 73:1.0 74:1.0 75:1.0 76:1.0 77:0.8 78:0.622 79:1.0 80:1.0 81:1.0 82:1.0 83:1.0 84:1.0 85:1.0 86:1.0 87:0.328 88:0.384 89:1.0 90:1.0 91:0.476 92:1.0 93:1.0 94:1.0 95:1.0 96:0.8220000000000001 97:0.244 98:0.066 99:0.066 100:1.0 101:1.0 102:1.0 103:1.0 104:1.0 105:1.0 106:1.0 107:1.0 108:1.0 109:0.482 110:1.0 111:1.0 112:1.0 113:1.0 114:1.0 115:0.066 116:0.244 117:0.066 118:0.066 119:0.066 120:0.066 121:0.444 122:1.0 123:1.0 124:1.0 125:1.0 126:1.0 127:0.718 128:1.0 129:1.0 130:1.0 131:1.0 132:1.0 133:0.622 134:0.444 135:0.066 136:0.066 137:0.066 138:0.066 139:0.066 140:0.266 141:0.244 142:1.0 143:1.0 144:1.0 145:1.0 146:1.0 147:1.0 148:1.0 149:1.0 150:1.0 151:1.0 152:0.8220000000000001 153:0.244 154:0.066 155:0.066 156:0.066 157:0.066 158:0.066 159:0.244 160:0.622 161:1.0 162:1.0 163:1.0 164:1.0 165:0.14800000000000002 166:1.0 167:1.0 168:1.0 169:0.49599999999999994 170:1.0 171:1.0 172:1.0 173:0.444 174:0.066 175:0.066 176:0.066 177:0.066 178:0.444 179:0.244 180:1.0 181:0.422 182:1.0 183:1.0 184:1.0 185:1.0 186:1.0 187:1.0 188:1.0 189:1.0 190:0.756 191:1.0 192:1.0 193:1.0 194:1.0 195:0.244 196:0.244 197:0.066 198:0.444 199:1.0 200:1.0 201:1.0 202:1.0 203:1.0 204:1.0 205:1.0 206:1.0 207:1.0 208:1.0 209:1.0 210:1.0 211:1.0 212:1.0 213:1.0 214:1.0 215:1.0 216:1.0 217:0.244 218:0.066 219:0.8 220:1.0 221:1.0 222:1.0 223:1.0 224:1.0 225:1.0 226:1.0 227:1.0 228:0.34600000000000003 229:1.0 230:1.0 231:1.0 232:1.0 233:1.0 234:0.08800000000000001 235:1.0 236:1.0 237:0.222 238:0.066 239:0.066 240:0.622 241:1.0 242:1.0 243:1.0 244:0.542 245:1.0 246:1.0 247:1.0 248:1.0 249:1.0 250:1.0 251:1.0 252:1.0 253:1.0 254:1.0 255:1.0 256:1.0 257:1.0 258:1.0 259:0.066 260:0.066 261:0.066 262:1.0 263:1.0 264:0.282 265:1.0 266:1.0 267:1.0 268:0.46799999999999997 269:1.0 270:1.0 271:0.438 272:1.0 273:1.0 274:1.0 275:1.0 276:1.0 277:1.0 278:1.0 279:1.0 280:0.622 281:0.244 282:0.8220000000000001 283:1.0 284:1.0 285:1.0 286:1.0 287:1.0 288:1.0 289:1.0 290:1.0 291:1.0 292:1.0 293:1.0 294:1.0 295:1.0 296:1.0 297:0.18 298:1.0 299:0.37999999999999995 300:1.0 301:1.0 302:1.0 303:1.0 304:1.0 305:1.0 306:1.0 307:1.0 308:0.126 309:0.622 310:1.0 311:1.0 312:0.304 313:0.576 314:1.0 315:1.0 316:1.0 317:1.0 318:1.0 319:1.0 320:1.0 321:0.40199999999999997 322:1.0 323:0.8220000000000001 324:0.8220000000000001 325:0.444 326:0.444 327:0.244 328:0.244 329:0.066 330:0.066 331:0.622 332:1.0 333:1.0 334:1.0 335:1.0 336:1.0 
0.0 0.0 0.5550320084082555 2.241202509988947 0.0 0.95045621605506 0.0 0.0 0.0 2.2497846552212017 0.0 0.0 0.0 0.20463946388581183 0.0 0.0 0.0 0.0 0.0 0.0 1.4277455215343045 0.0 0.0 2.82119433573669 0.0 0.0 0.2215039753967467 0.0 0.8566211072823626 0.0 0.0 0.0 0.0 1:1.0 2:1.0 3:1.0 4:1.0 5:1.0 6:1.0 7:0.244 8:0.066 9:0.444 10:1.0 11:0.8 12:0.266 13:0.066 14:0.066 15:0.244 16:1.0 17:1.0 18:1.0 19:1.0 20:1.0 21:1.0 22:1.0 23:1.0 24:1.0 25:0.74 26:1.0 27:1.0 28:1.0 29:0.622 30:0.8220000000000001 31:1.0 32:1.0 33:1.0 34:0.8220000000000001 35:0.8220000000000001 36:0.044000000000000004 37:1.0 38:1.0 39:1.0 40:1.0 41:1.0 42:1.0 43:1.0 44:1.0 45:1.0 46:1.0 47:1.0 48:1.0 49:1.0 50:1.0 51:1.0 52:1.0 53:1.0 54:1.0 55:1.0 56:1.0 57:1.0 58:1.0 59:1.0 60:1.0 61:1.0 62:1.0 63:1.0 64:1.0 65:1.0 66:1.0 67:1.0 68:1.0 69:1.0 70:1.0 71:1.0 72:1.0 73:1.0 74:0.542 75:1.0 76:1.0 77:1.0 78:1.0 79:1.0 80:1.0 81:1.0 82:1.0 83:1.0 84:1.0 85:1.0 86:1.0 87:1.0 88:1.0 89:1.0 90:1.0 91:1.0 92:1.0 93:1.0 94:1.0 95:1.0 96:1.0 97:1.0 98:1.0 99:1.0 100:1.0 101:1.0 102:1.0 103:1.0 104:1.0 105:1.0 106:1.0 107:1.0 108:1.0 109:1.0 110:0.268 111:1.0 112:1.0 113:1.0 114:1.0 115:1.0 116:1.0 117:1.0 118:1.0 119:1.0 120:1.0 121:0.49599999999999994 122:1.0 123:1.0 124:1.0 125:1.0 126:1.0 127:1.0 128:1.0 129:1.0 130:1.0 131:0.8 132:0.266 133:0.066 134:0.444 135:0.422 136:0.622 137:0.622 138:0.8220000000000001 139:1.0 140:1.0 141:1.0 142:1.0 143:1.0 144:1.0 145:1.0 146:1.0 147:1.0 148:1.0 149:1.0 150:1.0 151:1.0 152:0.222 153:0.066 154:0.066 155:0.066 156:0.066 157:0.066 158:0.066 159:0.066 160:0.266 161:0.244 162:0.066 163:0.444 164:1.0 165:0.77 166:1.0 167:1.0 168:1.0 169:1.0 170:1.0 171:1.0 172:1.0 173:0.622 174:0.266 175:0.066 176:0.066 177:0.066 178:0.066 179:0.066 180:0.066 181:0.066 182:0.066 183:0.066 184:0.444 185:1.0 186:1.0 187:1.0 188:1.0 189:1.0 190:1.0 191:1.0 192:1.0 193:1.0 194:0.8220000000000001 195:0.244 196:0.066 197:0.244 198:0.622 199:0.444 200:0.444 201:0.244 202:0.244 203:0.244 204:0.244 205:0.444 206:1.0 207:1.0 208:1.0 209:1.0 210:1.0 211:1.0 212:1.0 213:1.0 214:1.0 215:0.066 216:0.066 217:0.244 218:1.0 219:1.0 220:1.0 221:1.0 222:1.0 223:1.0 224:0.8899999999999999 225:0.8 226:0.482 227:1.0 228:0.7020000000000001 229:1.0 230:1.0 231:1.0 232:0.576 233:1.0 234:1.0 235:0.7340000000000001 236:0.244 237:0.066 238:0.444 239:1.0 240:1.0 241:1.0 242:1.0 243:1.0 244:1.0 245:1.0 246:1.0 247:1.0 248:1.0 249:1.0 250:1.0 251:1.0 252:1.0 253:1.0 254:1.0 255:1.0 256:1.0 257:0.244 258:0.444 259:0.622 260:1.0 261:1.0 262:1.0 263:1.0 264:1.0 265:1.0 266:0.7539999999999999 267:0.356 268:1.0 269:1.0 270:1.0 271:1.0 272:0.48 273:1.0 274:1.0 275:1.0 276:1.0 277:1.0 278:1.0 279:1.0 280:1.0 281:1.0 282:0.638 283:1.0 284:1.0 285:1.0 286:1.0 287:1.0 288:0.5860000000000001 289:1.0 290:1.0 291:1.0 292:1.0 293:1.0 294:1.0 295:1.0 296:1.0 297:1.0 298:1.0 299:1.0 300:1.0 301:1.0 302:0.482 303:1.0 304:1.0 305:1.0 306:1.0 307:1.0 308:1.0 309:1.0 310:1.0 311:1.0 312:1.0 313:1.0 314:1.0 315:1.0 316:1.0 317:1.0 318:1.0 319:1.0 320:1.0 321:1.0 322:1.0 323:1.0 324:1.0 325:1.0 326:0.126 327:1.0 328:1.0 329:1.0 330:1.0 331:1.0 332:1.0 333:1.0 334:1.0 335:1.0 336:1.0 
0.2815261662969164 0.0 1.238407680360643 1.6324000265289833 0.0 0.23852318399756225 0.4766438358667762 0.0 0.0 1.1824353571676058 0.0 0.0 0.0 0.0 0.0 0.0 0.0 0.0 0.0 1.8573433665467214 0.010993913602036805 0.0 0.0 0.0 0.0 0.20852679411912833 1.4632012277792106 0.10296882606372317 0.0 0.0 0.2409615563325781 0.0 0.0 1:1.0 2:1.0 3:1.0 4:0.8220000000000001 5:0.422 6:0.266 7:0.066 8:0.066 9:0.066 10:0.066 11:0.066 12:0.266 13:0.422 14:1.0 15:0.126 16:1.0 17:1.0 18:1.0 19:1.0 20:1.0 21:1.0 22:1.0 23:0.20199999999999999 24:0.244 25:0.066 26:0.066 27:0.066 28:0.066 29:0.066 30:0.244 31:0.266 32:0.8220000000000001 33:0.126 34:1.0 35:1.0 36:1.0 37:1.0 38:1.0 39:1.0 40:1.0 41:1.0 42:1.0 43:1.0 44:1.0 45:0.066 46:0.066 47:0.066 48:0.266 49:0.244 50:0.8220000000000001 51:1.0 52:1.0 53:1.0 54:1.0 55:1.0 56:1.0 57:1.0 58:1.0 59:1.0 60:0.304 61:1.0 62:1.0 63:1.0 64:1.0 65:1.0 66:0.444 67:0.244 68:0.622 69:0.8220000000000001 70:1.0 71:1.0 72:1.0 73:1.0 74:0.642 75:1.0 76:1.0 77:1.0 78:1.0 79:1.0 80:1.0 81:1.0 82:1.0 83:1.0 84:1.0 85:1.0 86:1.0 87:1.0 88:1.0 89:1.0 90:1.0 91:1.0 92:1.0 93:1.0 94:1.0 95:1.0 96:1.0 97:1.0 98:0.8220000000000001 99:0.622 100:1.0 101:0.444 102:1.0 103:0.62 104:1.0 105:1.0 106:1.0 107:1.0 108:1.0 109:1.0 110:1.0 111:1.0 112:1.0 113:1.0 114:1.0 115:1.0 116:0.8220000000000001 117:0.444 118:0.244 119:0.066 120:0.244 121:1.0 122:1.0 123:1.0 124:1.0 125:1.0 126:1.0 127:1.0 128:1.0 129:1.0 130:1.0 131:1.0 132:1.0 133:1.0 134:1.0 135:0.444 136:0.266 137:0.066 138:0.066 139:0.066 140:0.066 141:0.066 142:0.8220000000000001 143:1.0 144:1.0 145:0.104 146:1.0 147:1.0 148:1.0 149:1.0 150:1.0 151:1.0 152:1.0 153:0.622 154:0.266 155:0.244 156:0.066 157:0.066 158:0.066 159:0.066 160:0.266 161:0.244 162:0.622 163:1.0 164:1.0 165:1.0 166:1.0 167:0.674 168:1.0 169:1.0 170:0.8380000000000001 171:1.0 172:1.0 173:0.244 174:0.066 175:0.066 176:0.066 177:0.066 178:0.066 179:0.066 180:0.622 181:0.8 182:1.0 183:1.0 184:1.0 185:1.0 186:1.0 187:1.0 188:1.0 189:1.0 190:1.0 191:1.0 192:1.0 193:1.0 194:0.622 195:0.066 196:0.066 197:0.066 198:0.244 199:0.622 200:1.0 201:1.0 202:1.0 203:0.658 204:1.0 205:1.0 206:1.0 207:1.0 208:1.0 209:1.0 210:1.0 211:0.498 212:1.0 213:1.0 214:1.0 215:1.0 216:0.622 217:0.244 218:0.266 219:0.8 220:1.0 221:1.0 222:1.0 223:1.0 224:1.0 225:1.0 226:1.0 227:1.0 228:1.0 229:1.0 230:1.0 231:1.0 232:1.0 233:1.0 234:1.0 235:1.0 236:1.0 237:0.622 238:0.066 239:0.244 240:1.0 241:1.0 242:1.0 243:1.0 244:1.0 245:1.0 246:1.0 247:1.0 248:1.0 249:1.0 250:1.0 251:1.0 252:1.0 253:1.0 254:1.0 255:1.0 256:1.0 257:1.0 258:0.622 259:0.066 260:0.066 261:0.622 262:1.0 263:1.0 264:1.0 265:1.0 266:1.0 267:1.0 268:1.0 269:0.6 270:1.0 271:0.236 272:1.0 273:1.0 274:0.76 275:0.8959999999999999 276:1.0 277:1.0 278:1.0 279:0.8220000000000001 280:0.244 281:0.244 282:0.304 283:1.0 284:1.0 285:1.0 286:1.0 287:1.0 288:1.0 289:1.0 290:1.0 291:1.0 292:1.0 293:1.0 294:1.0 295:1.0 296:1.0 297:1.0 298:1.0 299:1.0 300:1.0 301:0.622 302:0.8220000000000001 303:1.0 304:1.0 305:1.0 306:0.644 307:0.622 308:1.0 309:1.0 310:1.0 311:1.0 312:1.0 313:1.0 314:1.0 315:1.0 316:1.0 317:1.0 318:1.0 319:1.0 320:1.0 321:1.0 322:1.0 323:1.0 324:1.0 325:1.0 326:0.37999999999999995 327:0.444 328:0.066 329:0.066 330:0.622 331:1.0 332:1.0 333:1.0 334:1.0 335:1.0 336:1.0 
0.0 0.0 1.1842777236753055 2.2654769470553933 0.0 1.1107034661980235 0.9128251599861972 0.0 0.0 2.69308766728667 0.0 0.0 0.0 0.0 0.12669270833397603 0.0 0.0 0.0 0.0 0.0 3.2596550749245594 0.12570591210687826 0.0 4.2219389271345475 0.0 0.0 1.3480060275129326 0.0 0.33770324931289364 0.0 0.6249087062263341 0.0 0.0 1:1.0 2:1.0 3:0.066 4:0.266 5:0.422 6:1.0 7:1.0 8:1.0 9:1.0 10:1.0 11:1.0 12:1.0 13:1.0 14:1.0 15:1.0 16:1.0 17:1.0 18:1.0 19:1.0 20:1.0 21:1.0 22:1.0 23:1.0 24:0.622 25:0.8220000000000001 26:1.0 27:1.0 28:1.0 29:1.0 30:1.0 31:0.852 32:1.0 33:1.0 34:1.0 35:1.0 36:1.0 37:1.0 38:1.0 39:1.0 40:1.0 41:1.0 42:0.642 43:1.0 44:0.858 45:1.0 46:1.0 47:1.0 48:1.0 49:1.0 50:1.0 51:0.22999999999999998 52:1.0 53:1.0 54:1.0 55:1.0 56:1.0 57:1.0 58:1.0 59:1.0 60:1.0 61:1.0 62:1.0 63:1.0 64:1.0 65:1.0 66:1.0 67:1.0 68:1.0 69:1.0 70:1.0 71:1.0 72:1.0 73:1.0 74:1.0 75:1.0 76:1.0 77:1.0 78:1.0 79:1.0 80:1.0 81:1.0 82:1.0 83:1.0 84:1.0 85:1.0 86:1.0 87:1.0 88:1.0 89:0.066 90:1.0 91:1.0 92:1.0 93:1.0 94:1.0 95:1.0 96:1.0 97:1.0 98:1.0 99:1.0 100:1.0 101:1.0 102:1.0 103:0.696 104:1.0 105:1.0 106:1.0 107:1.0 108:1.0 109:1.0 110:1.0 111:1.0 112:1.0 113:1.0 114:1.0 115:1.0 116:1.0 117:1.0 118:1.0 119:0.8 120:0.622 121:0.8220000000000001 122:1.0 123:0.6759999999999999 124:1.0 125:1.0 126:0.31999999999999995 127:1.0 128:1.0 129:1.0 130:0.364 131:1.0 132:1.0 133:1.0 134:0.8220000000000001 135:0.622 136:0.622 137:0.244 138:0.266 139:0.066 140:0.066 141:0.066 142:0.622 143:1.0 144:1.0 145:1.0 146:1.0 147:1.0 148:1.0 149:1.0 150:1.0 151:1.0 152:0.622 153:0.244 154:0.244 155:0.066 156:0.066 157:0.066 158:0.066 159:0.066 160:0.066 161:0.066 162:0.066 163:0.444 164:1.0 165:1.0 166:1.0 167:1.0 168:1.0 169:1.0 170:0.8380000000000001 171:1.0 172:1.0 173:0.444 174:0.066 175:0.066 176:0.066 177:0.066 178:0.066 179:0.066 180:0.266 181:0.244 182:0.444 183:0.444 184:0.8220000000000001 185:1.0 186:1.0 187:1.0 188:1.0 189:1.0 190:0.364 191:1.0 192:0.328 193:1.0 194:0.8220000000000001 195:0.244 196:0.066 197:0.066 198:0.266 199:0.444 200:0.8220000000000001 201:1.0 202:1.0 203:1.0 204:1.0 205:1.0 206:0.578 207:1.0 208:1.0 209:1.0 210:1.0 211:1.0 212:1.0 213:1.0 214:1.0 215:0.258 216:0.304 217:0.066 218:0.444 219:0.44599999999999995 220:1.0 221:1.0 222:1.0 223:1.0 224:1.0 225:1.0 226:1.0 227:1.0 228:1.0 229:1.0 230:1.0 231:1.0 232:1.0 233:1.0 234:0.44599999999999995 235:1.0 236:1.0 237:0.066 238:0.066 239:0.622 240:1.0 241:1.0 242:1.0 243:1.0 244:1.0 245:0.38599999999999995 246:1.0 247:1.0 248:1.0 249:1.0 250:1.0 251:1.0 252:0.444 253:1.0 254:1.0 255:1.0 256:1.0 257:1.0 258:0.266 259:0.066 260:0.444 261:1.0 262:1.0 263:1.0 264:1.0 265:0.44199999999999995 266:1.0 267:1.0 268:1.0 269:0.376 270:1.0 271:0.526 272:1.0 273:1.0 274:1.0 275:1.0 276:1.0 277:1.0 278:1.0 279:0.444 280:0.244 281:0.622 282:1.0 283:1.0 284:1.0 285:1.0 286:1.0 287:1.0 288:1.0 289:1.0 290:1.0 291:1.0 292:1.0 293:1.0 294:0.322 295:1.0 296:1.0 297:1.0 298:0.526 299:1.0 300:1.0 301:1.0 302:0.502 303:1.0 304:1.0 305:1.0 306:0.222 307:1.0 308:1.0 309:1.0 310:1.0 311:1.0 312:0.792 313:1.0 314:1.0 315:1.0 316:1.0 317:1.0 318:1.0 319:1.0 320:1.0 321:1.0 322:1.0 323:1.0 324:1.0 325:1.0 326:1.0 327:1.0 328:1.0 329:1.0 330:1.0 331:0.694 332:0.32599999999999996 333:1.0 334:1.0 335:1.0 336:1.0 
0.567416494572076 0.308286589583716 0.0 0.0 0.0 0.0 0.0 0.613995433778448 0.0 0.0 0.6338141051467046 0.4343207410800259 0.5560006376450914 0.3169765840747466 0.0 0.04667901520939251 0.0 0.0 0.9835561395572029 0.0 0.0 0.0 0.21339890683663393 1.0258560664664054 1.1065725021448753 0.0 0.0 0.3343207881994267 0.0 0.0 0.0 0.9886509495072988 0.4207158637038549 1:1.0 2:1.0 3:1.0 4:1.0 5:1.0 6:1.0 7:1.0 8:1.0 9:1.0 10:1.0 11:1.0 12:1.0 13:0.8 14:0.622 15:0.244 16:1.0 17:1.0 18:1.0 19:1.0 20:1.0 21:1.0 22:1.0 23:1.0 24:1.0 25:1.0 26:1.0 27:1.0 28:1.0 29:1.0 30:1.0 31:1.0 32:1.0 33:1.0 34:1.0 35:1.0 36:1.0 37:1.0 38:1.0 39:1.0 40:1.0 41:1.0 42:1.0 43:1.0 44:1.0 45:1.0 46:1.0 47:1.0 48:1.0 49:1.0 50:1.0 51:1.0 52:1.0 53:1.0 54:0.7160000000000001 55:1.0 56:1.0 57:1.0 58:1.0 59:1.0 60:1.0 61:1.0 62:1.0 63:1.0 64:1.0 65:1.0 66:1.0 67:1.0 68:0.852 69:1.0 70:1.0 71:1.0 72:1.0 73:1.0 74:1.0 75:1.0 76:1.0 77:1.0 78:1.0 79:1.0 80:1.0 81:1.0 82:1.0 83:1.0 84:1.0 85:1.0 86:1.0 87:1.0 88:0.48 89:1.0 90:1.0 91:1.0 92:1.0 93:1.0 94:0.642 95:0.208 96:1.0 97:0.358 98:0.8220000000000001 99:0.622 100:1.0 101:0.06 102:1.0 103:1.0 104:1.0 105:1.0 106:1.0 107:1.0 108:1.0 109:1.0 110:1.0 111:1.0 112:1.0 113:1.0 114:0.8220000000000001 115:0.622 116:0.444 117:0.244 118:0.066 119:0.066 120:0.066 121:0.444 122:1.0 123:1.0 124:1.0 125:1.0 126:1.0 127:1.0 128:1.0 129:1.0 130:0.364 131:0.8 132:0.622 133:0.244 134:0.266 135:0.066 136:0.066 137:0.066 138:0.066 139:0.066 140:0.066 141:0.066 142:0.444 143:1.0 144:1.0 145:1.0 146:1.0 147:1.0 148:1.0 149:1.0 150:0.42 151:1.0 152:0.622 153:0.066 154:0.066 155:0.066 156:0.066 157:0.066 158:0.066 159:0.066 160:0.244 161:0.244 162:0.444 163:0.622 164:0.082 165:1.0 166:1.0 167:1.0 168:1.0 169:1.0 170:1.0 171:1.0 172:1.0 173:0.8 174:0.066 175:0.066 176:0.066 177:0.066 178:0.444 179:0.162 180:0.8220000000000001 181:1.0 182:1.0 183:1.0 184:1.0 185:1.0 186:1.0 187:0.68 188:1.0 189:1.0 190:1.0 191:1.0 192:1.0 193:1.0 194:0.318 195:0.622 196:0.266 197:0.244 198:0.8220000000000001 199:1.0 200:1.0 201:1.0 202:1.0 203:1.0 204:1.0 205:1.0 206:1.0 207:1.0 208:1.0 209:1.0 210:1.0 211:1.0 212:1.0 213:1.0 214:1.0 215:1.0 216:0.444 217:0.066 218:0.444 219:1.0 220:0.49599999999999994 221:1.0 222:1.0 223:1.0 224:1.0 225:1.0 226:1.0 227:0.556 228:1.0 229:1.0 230:1.0 231:1.0 232:1.0 233:1.0 234:1.0 235:1.0 236:1.0 237:0.244 238:0.066 239:0.066 240:1.0 241:0.74 242:1.0 243:1.0 244:1.0 245:1.0 246:1.0 247:1.0 248:1.0 249:1.0 250:1.0 251:1.0 252:1.0 253:1.0 254:1.0 255:1.0 256:1.0 257:1.0 258:0.622 259:0.066 260:0.444 261:0.8 262:1.0 263:1.0 264:1.0 265:1.0 266:1.0 267:1.0 268:1.0 269:0.32599999999999996 270:1.0 271:1.0 272:1.0 273:1.0 274:1.0 275:1.0 276:1.0 277:1.0 278:1.0 279:1.0 280:0.622 281:0.52 282:1.0 283:1.0 284:1.0 285:1.0 286:1.0 287:0.622 288:0.8220000000000001 289:1.0 290:1.0 291:1.0 292:1.0 293:1.0 294:1.0 295:1.0 296:1.0 297:1.0 298:1.0 299:1.0 300:1.0 301:1.0 302:1.0 303:1.0 304:1.0 305:1.0 306:1.0 307:0.8 308:0.266 309:0.622 310:0.562 311:1.0 312:1.0 313:1.0 314:1.0 315:1.0 316:1.0 317:1.0 318:1.0 319:1.0 320:1.0 321:1.0 322:1.0 323:1.0 324:1.0 325:1.0 326:1.0 327:0.8220000000000001 328:0.244 329:0.066 330:0.444 331:1.0 332:1.0 333:1.0 334:1.0 335:1.0 336:1.0 
0.05655499947119611 0.016709001703640605 0.19610214074855475 1.2070179165652888 0.35153210714509886 0.0484325956358125 0.0 0.0 0.0 0.8433431920332892 0.1551034754290047 0.19320981094535813 0.0 0.147853867608161 0.0 0.0 0.03331909863765814 0.21175835798966974 0.0 0.0 1.1211617717311635 0.0 0.0 1.4435211703737252 0.3355508726864785 0.6208652564564203 0.11915568030810245 5.45425141338638E-4 1.2308700961315096 0.18214672149635155 0.0 0.7099926618871631 0.1844786117206988 1:1.0 2:1.0 3:1.0 4:1.0 5:1.0 6:1.0 7:1.0 8:1.0 9:1.0 10:1.0 11:1.0 12:1.0 13:1.0 14:1.0 15:0.8220000000000001 16:0.356 17:1.0 18:1.0 19:1.0 20:0.72 21:1.0 22:1.0 23:0.29600000000000004 24:1.0 25:0.34 26:1.0 27:1.0 28:1.0 29:0.41800000000000004 30:1.0 31:1.0 32:1.0 33:1.0 34:1.0 35:1.0 36:1.0 37:1.0 38:1.0 39:1.0 40:1.0 41:1.0 42:1.0 43:1.0 44:1.0 45:1.0 46:1.0 47:1.0 48:1.0 49:0.34199999999999997 50:1.0 51:1.0 52:1.0 53:1.0 54:1.0 55:1.0 56:1.0 57:1.0 58:1.0 59:1.0 60:1.0 61:1.0 62:1.0 63:1.0 64:1.0 65:1.0 66:1.0 67:1.0 68:1.0 69:1.0 70:1.0 71:1.0 72:1.0 73:1.0 74:1.0 75:1.0 76:1.0 77:1.0 78:1.0 79:1.0 80:1.0 81:1.0 82:0.304 83:1.0 84:1.0 85:1.0 86:1.0 87:1.0 88:1.0 89:1.0 90:0.282 91:1.0 92:1.0 93:1.0 94:1.0 95:1.0 96:1.0 97:1.0 98:0.8220000000000001 99:0.622 100:1.0 101:1.0 102:1.0 103:1.0 104:1.0 105:1.0 106:1.0 107:1.0 108:1.0 109:0.6 110:1.0 111:1.0 112:1.0 113:1.0 114:0.178 115:1.0 116:1.0 117:0.444 118:0.244 119:0.066 120:0.244 121:1.0 122:1.0 123:1.0 124:1.0 125:1.0 126:1.0 127:1.0 128:1.0 129:1.0 130:1.0 131:1.0 132:1.0 133:1.0 134:1.0 135:0.622 136:0.444 137:0.066 138:0.066 139:0.066 140:0.066 141:0.066 142:0.8220000000000001 143:1.0 144:1.0 145:1.0 146:1.0 147:1.0 148:1.0 149:1.0 150:1.0 151:1.0 152:1.0 153:0.622 154:0.444 155:0.244 156:0.066 157:0.066 158:0.066 159:0.066 160:0.066 161:0.244 162:0.622 163:1.0 164:1.0 165:1.0 166:1.0 167:1.0 168:1.0 169:1.0 170:1.0 171:1.0 172:1.0 173:0.244 174:0.066 175:0.066 176:0.066 177:0.066 178:0.066 179:0.066 180:0.444 181:0.622 182:1.0 183:1.0 184:1.0 185:1.0 186:1.0 187:1.0 188:1.0 189:1.0 190:1.0 191:1.0 192:1.0 193:1.0 194:0.622 195:0.066 196:0.066 197:0.066 198:0.066 199:0.622 200:1.0 201:1.0 202:1.0 203:1.0 204:1.0 205:1.0 206:1.0 207:1.0 208:1.0 209:1.0 210:1.0 211:1.0 212:1.0 213:1.0 214:1.0 215:0.74 216:0.444 217:0.066 218:0.066 219:0.622 220:1.0 221:0.6519999999999999 222:0.282 223:1.0 224:1.0 225:1.0 226:1.0 227:1.0 228:1.0 229:1.0 230:1.0 231:1.0 232:1.0 233:1.0 234:1.0 235:1.0 236:1.0 237:0.8220000000000001 238:0.244 239:0.244 240:1.0 241:1.0 242:1.0 243:1.0 244:1.0 245:1.0 246:1.0 247:1.0 248:1.0 249:0.2 250:1.0 251:1.0 252:0.5800000000000001 253:1.0 254:1.0 255:1.0 256:1.0 257:1.0 258:0.8220000000000001 259:0.066 260:0.066 261:0.444 262:1.0 263:1.0 264:0.68 265:1.0 266:1.0 267:1.0 268:0.6 269:1.0 270:1.0 271:1.0 272:1.0 273:1.0 274:1.0 275:1.0 276:0.504 277:1.0 278:1.0 279:0.8220000000000001 280:0.244 281:0.066 282:0.444 283:1.0 284:0.022000000000000002 285:1.0 286:0.528 287:1.0 288:1.0 289:1.0 290:1.0 291:1.0 292:1.0 293:0.262 294:1.0 295:1.0 296:1.0 297:1.0 298:1.0 299:1.0 300:1.0 301:0.622 302:0.622 303:1.0 304:1.0 305:1.0 306:1.0 307:1.0 308:1.0 309:1.0 310:1.0 311:0.298 312:1.0 313:1.0 314:1.0 315:1.0 316:1.0 317:1.0 318:1.0 319:1.0 320:1.0 321:1.0 322:0.66 323:1.0 324:1.0 325:1.0 326:0.7160000000000001 327:1.0 328:1.0 329:1.0 330:1.0 331:1.0 332:1.0 333:1.0 334:1.0 335:1.0 336:1.0 
0.03835536893224103 0.6074661718514948 2.668717488410279 3.857435953176659 0.5937111291403562 2.780268815697789 0.5997736381600052 0.02660850501326403 0.5460307759374663 3.8953949470790326 0.3010413423206447 0.8201766145915286 0.16224226297891753 0.8613019560985022 0.8986095336107123 0.16623541960365515 0.31936650597255484 0.46444189838182587 0.2917636851465049 1.170056147115211 4.871995395863098 0.7089317806724174 0.0 4.82376207980716 0.4260825208350652 0.0 1.7906138785440304 0.273101529905514 2.2636691571815883 1.3728559357272803 0.8557409981224094 1.3740838921050536 0.2254835113076509 1:1.0 2:1.0 3:1.0 4:1.0 5:1.0 6:0.8220000000000001 7:0.422 8:0.594 9:1.0 10:1.0 11:0.244 12:0.066 13:0.066 14:0.066 15:0.444 16:1.0 17:1.0 18:1.0 19:1.0 20:1.0 21:0.2 22:1.0 23:1.0 24:1.0 25:1.0 26:1.0 27:1.0 28:0.38599999999999995 29:1.0 30:1.0 31:0.318 32:0.266 33:0.066 34:0.066 35:0.444 36:1.0 37:1.0 38:1.0 39:1.0 40:1.0 41:1.0 42:0.48 43:1.0 44:1.0 45:1.0 46:1.0 47:1.0 48:1.0 49:1.0 50:1.0 51:1.0 52:1.0 53:0.444 54:0.622 55:0.8 56:1.0 57:1.0 58:1.0 59:1.0 60:1.0 61:1.0 62:1.0 63:0.126 64:1.0 65:1.0 66:1.0 67:0.82 68:1.0 69:1.0 70:1.0 71:1.0 72:1.0 73:0.022000000000000002 74:1.0 75:1.0 76:1.0 77:1.0 78:1.0 79:1.0 80:1.0 81:0.044000000000000004 82:1.0 83:1.0 84:1.0 85:0.282 86:1.0 87:1.0 88:1.0 89:1.0 90:1.0 91:1.0 92:1.0 93:1.0 94:1.0 95:1.0 96:1.0 97:1.0 98:1.0 99:1.0 100:1.0 101:1.0 102:1.0 103:1.0 104:1.0 105:1.0 106:1.0 107:1.0 108:1.0 109:1.0 110:1.0 111:0.266 112:0.34 113:1.0 114:1.0 115:1.0 116:0.68 117:0.362 118:1.0 119:1.0 120:1.0 121:0.6519999999999999 122:1.0 123:1.0 124:1.0 125:1.0 126:1.0 127:1.0 128:1.0 129:1.0 130:1.0 131:0.622 132:0.066 133:0.066 134:0.266 135:0.444 136:1.0 137:1.0 138:1.0 139:1.0 140:1.0 141:1.0 142:1.0 143:1.0 144:1.0 145:0.6 146:1.0 147:1.0 148:0.32599999999999996 149:1.0 150:1.0 151:1.0 152:0.444 153:0.066 154:0.066 155:0.066 156:0.066 157:0.066 158:0.444 159:0.8 160:1.0 161:1.0 162:1.0 163:1.0 164:1.0 165:1.0 166:1.0 167:1.0 168:1.0 169:0.118 170:1.0 171:1.0 172:1.0 173:0.444 174:0.266 175:0.066 176:0.066 177:0.066 178:0.066 179:0.066 180:0.066 181:0.044000000000000004 182:0.622 183:0.8 184:1.0 185:1.0 186:1.0 187:0.20199999999999999 188:1.0 189:1.0 190:1.0 191:1.0 192:1.0 193:0.244 194:0.066 195:0.066 196:0.444 197:0.444 198:0.266 199:0.244 200:0.066 201:0.066 202:0.066 203:0.066 204:0.244 205:0.8 206:1.0 207:1.0 208:1.0 209:1.0 210:1.0 211:1.0 212:0.318 213:0.8 214:0.066 215:0.066 216:0.622 217:1.0 218:0.34 219:1.0 220:1.0 221:0.444 222:0.266 223:0.066 224:0.066 225:0.066 226:1.0 227:1.0 228:1.0 229:1.0 230:1.0 231:1.0 232:1.0 233:1.0 234:0.622 235:0.244 236:0.244 237:0.622 238:1.0 239:0.578 240:1.0 241:0.8600000000000001 242:1.0 243:1.0 244:0.8220000000000001 245:0.244 246:0.444 247:1.0 248:0.88 249:1.0 250:1.0 251:1.0 252:1.0 253:1.0 254:1.0 255:1.0 256:1.0 257:1.0 258:1.0 259:1.0 260:1.0 261:1.0 262:0.732 263:1.0 264:0.556 265:1.0 266:1.0 267:1.0 268:1.0 269:1.0 270:1.0 271:1.0 272:1.0 273:1.0 274:1.0 275:1.0 276:1.0 277:1.0 278:1.0 279:1.0 280:1.0 281:1.0 282:1.0 283:0.82 284:1.0 285:1.0 286:1.0 287:0.384 288:1.0 289:1.0 290:1.0 291:1.0 292:1.0 293:1.0 294:1.0 295:1.0 296:1.0 297:1.0 298:1.0 299:1.0 300:1.0 301:1.0 302:1.0 303:1.0 304:1.0 305:1.0 306:1.0 307:1.0 308:1.0 309:1.0 310:1.0 311:1.0 312:1.0 313:1.0 314:1.0 315:1.0 316:1.0 317:0.6140000000000001 318:1.0 319:1.0 320:0.34199999999999997 321:1.0 322:0.518 323:0.40199999999999997 324:1.0 325:1.0 326:1.0 327:1.0 328:1.0 329:1.0 330:1.0 331:1.0 332:1.0 333:1.0 334:1.0 335:1.0 336:1.0 
0.0 0.20685533774204273 0.0 0.0 0.9384646389886673 0.5827534905299265 0.0 0.10053688822483696 0.05622441887555551 0.16195182418447346 0.09414255145584853 0.19893313209667773 0.57130330961377 0.7569500780305244 0.2954479612208033 0.0 0.015163392173943798 0.7638782279734224 0.3961905962412776 0.0 1.8705564255943328 0.04905732737340293 0.1260138076435579 1.9492244602422042 0.0 0.0 0.023410062073019284 0.21327817832569235 0.5718392404285519 0.44608267452442557 0.0 0.8172868953113991 0.12838711133692873 1:0.406 2:1.0 3:1.0 4:1.0 5:1.0 6:1.0 7:1.0 8:1.0 9:1.0 10:1.0 11:1.0 12:1.0 13:1.0 14:0.482 15:1.0 16:1.0 17:1.0 18:1.0 19:1.0 20:1.0 21:1.0 22:1.0 23:0.438 24:1.0 25:1.0 26:1.0 27:0.304 28:1.0 29:0.912 30:1.0 31:1.0 32:1.0 33:1.0 34:1.0 35:1.0 36:1.0 37:1.0 38:1.0 39:1.0 40:1.0 41:0.45999999999999996 42:1.0 43:1.0 44:1.0 45:1.0 46:1.0 47:1.0 48:1.0 49:1.0 50:1.0 51:1.0 52:1.0 53:1.0 54:1.0 55:1.0 56:1.0 57:1.0 58:1.0 59:1.0 60:1.0 61:1.0 62:1.0 63:1.0 64:1.0 65:1.0 66:1.0 67:1.0 68:1.0 69:1.0 70:1.0 71:1.0 72:1.0 73:1.0 74:0.504 75:1.0 76:0.542 77:1.0 78:1.0 79:1.0 80:1.0 81:1.0 82:1.0 83:1.0 84:1.0 85:1.0 86:0.6140000000000001 87:1.0 88:1.0 89:1.0 90:1.0 91:1.0 92:1.0 93:0.35 94:1.0 95:1.0 96:1.0 97:1.0 98:1.0 99:1.0 100:0.266 101:1.0 102:1.0 103:0.244 104:1.0 105:1.0 106:1.0 107:1.0 108:0.556 109:1.0 110:1.0 111:0.066 112:0.444 113:0.184 114:0.424 115:1.0 116:1.0 117:1.0 118:1.0 119:1.0 120:1.0 121:1.0 122:1.0 123:0.6020000000000001 124:1.0 125:1.0 126:1.0 127:1.0 128:1.0 129:1.0 130:1.0 131:0.162 132:0.066 133:0.066 134:0.066 135:0.066 136:0.444 137:0.622 138:1.0 139:1.0 140:1.0 141:1.0 142:1.0 143:1.0 144:1.0 145:1.0 146:1.0 147:1.0 148:1.0 149:1.0 150:1.0 151:1.0 152:0.066 153:0.066 154:0.066 155:0.066 156:0.066 157:0.066 158:0.066 159:0.244 160:0.444 161:0.244 162:1.0 163:1.0 164:1.0 165:0.62 166:1.0 167:0.6 168:1.0 169:1.0 170:1.0 171:1.0 172:0.222 173:0.444 174:0.266 175:0.066 176:0.266 177:0.066 178:0.066 179:0.066 180:0.066 181:0.066 182:0.066 183:0.066 184:0.8220000000000001 185:1.0 186:1.0 187:1.0 188:1.0 189:1.0 190:0.362 191:1.0 192:1.0 193:0.444 194:0.066 195:0.066 196:0.622 197:0.8220000000000001 198:0.8220000000000001 199:0.622 200:0.444 201:0.244 202:0.066 203:0.066 204:0.066 205:0.8220000000000001 206:1.0 207:1.0 208:1.0 209:1.0 210:1.0 211:1.0 212:1.0 213:1.0 214:0.244 215:0.066 216:0.266 217:1.0 218:1.0 219:1.0 220:1.0 221:1.0 222:1.0 223:0.622 224:0.444 225:0.244 226:1.0 227:1.0 228:1.0 229:0.5980000000000001 230:1.0 231:1.0 232:1.0 233:1.0 234:1.0 235:0.444 236:0.266 237:0.244 238:1.0 239:1.0 240:0.282 241:1.0 242:1.0 243:1.0 244:1.0 245:1.0 246:1.0 247:1.0 248:1.0 249:1.0 250:1.0 251:1.0 252:1.0 253:1.0 254:1.0 255:1.0 256:1.0 257:1.0 258:1.0 259:1.0 260:0.14800000000000002 261:1.0 262:1.0 263:1.0 264:1.0 265:1.0 266:1.0 267:1.0 268:0.408 269:1.0 270:1.0 271:1.0 272:1.0 273:0.5399999999999999 274:1.0 275:1.0 276:1.0 277:1.0 278:0.59 279:1.0 280:1.0 281:0.34 282:1.0 283:1.0 284:1.0 285:1.0 286:1.0 287:1.0 288:1.0 289:1.0 290:1.0 291:1.0 292:1.0 293:1.0 294:1.0 295:1.0 296:0.814 297:1.0 298:0.8160000000000001 299:1.0 300:1.0 301:1.0 302:1.0 303:1.0 304:1.0 305:1.0 306:1.0 307:1.0 308:1.0 309:1.0 310:1.0 311:1.0 312:1.0 313:1.0 314:1.0 315:1.0 316:1.0 317:1.0 318:1.0 319:0.622 320:0.622 321:0.622 322:1.0 323:1.0 324:1.0 325:0.8220000000000001 326:0.622 327:0.622 328:0.8220000000000001 329:1.0 330:1.0 331:1.0 332:0.406 333:1.0 334:0.6779999999999999 335:1.0 336:1.0 
